194 128
129 0.17895067 -0.038734924 0.182689 -0.1969475 0.36436996 -0.23311983 0.28986943 -0.08830773 -0.21413241 0.17250977 -0.109623805 0.25449914 0.06643249 -0.017836604 -0.023756519 0.19507504 -0.22051755 0.31280652 0.22004256 -0.1750547 -0.05401987 -0.07701268 -0.30012584 0.11470962 -0.16743867 0.18217592 -0.15007907 -0.53605783 0.51295054 0.55241346 -0.15334271 0.06748716 0.00397355 0.12181543 0.24366164 0.5939363 -0.17141454 -0.07543247 -0.091533646 -0.063652925 -0.020446142 -0.35405067 0.03772861 0.33966345 0.11354334 -0.23932199 -0.5408867 -0.10764874 -0.19102451 -0.01636454 -0.40531337 -0.15468226 -0.1755709 0.09826703 0.31220418 0.0060518826 -0.2596185 0.06878647 0.3477507 -0.008220083 0.08868473 -0.30930266 0.13185504 0.029438483 0.038710613 -0.32985973 0.288321 -0.2057221 0.10852197 0.034970183 -0.010678331 -0.08410913 0.023163436 0.03186921 0.06323065 0.06863444 -0.30073884 0.07203514 0.33826888 0.33301178 0.07430499 0.23773578 0.013172874 0.38713145 0.008477285 0.20667052 -0.29687995 0.3635316 0.08731727 0.009745402 -0.34556115 0.14745459 -0.18521534 0.056482624 0.14607434 0.010068834 -0.17541158 0.1008764 0.09856277 -0.038589004 0.37577313 0.16101548 0.28976533 -0.3014016 -0.092125446 0.056440827 0.080169626 0.44098344 -0.2890655 -0.048328586 -0.17401353 0.14669915 0.43596 -0.2232077 -0.054266833 -0.17000978 0.36268163 -0.007100155 -0.55342996 -0.04112399 0.0245785 -0.08292074 0.18747208 -0.23253977 0.31025174 -0.2211403 -0.14582543 -0.37637186
365 -0.8028403 1.6570152 -0.12803872 -1.727672 -0.23411293 -0.7825718 0.8063809 0.113181025 0.2635436 -0.9668157 0.2627117 0.31354377 -0.60855585 0.44648927 0.8651547 0.25299883 -1.0696422 -0.85900146 0.17040285 0.25043526 0.5847338 0.847699 0.682296 1.4290465 -0.27206036 0.105541125 -0.37678796 -1.6962731 0.12005173 0.55267864 -0.04330428 0.47519645 -0.05279849 0.37535584 0.3313067 0.21249507 0.15499763 -1.0944581 -0.19050246 0.3635853 -0.25758868 -0.45913535 0.52838445 -0.8444831 -0.13600996 1.1649677 -1.156235 0.40179995 1.0153627 0.8228693 -0.5603635 -0.32259396 -0.28462258 0.58512783 0.23589666 -1.0883739 -0.23322964 -0.39994162 0.21780491 1.5590509 -0.3042325 -0.019038262 -0.9353083 0.8058374 0.18160343 -0.095335394 1.915503 -0.8714249 0.5530815 0.17024882 -0.3518969 1.1214648 0.075550556 0.16525711 0.7183703 0.2429486 -0.3423924 -0.3804532 -0.49454764 -0.44814914 -0.30133137 0.30893925 -0.5685973 -0.23891015 -0.060724646 -0.56574875 -0.18044554 -0.3901253 0.4543304 0.7967493 -0.73325396 0.107364126 0.18676971 -1.4800426 0.8754981 -0.09964591 -1.4019644 -0.2155991 0.3015627 0.34209958 -0.8374684 -1.3188568 0.5454184 0.912646 -0.43032095 1.3895029 0.7835742 0.10538091 -0.29092646 1.356954 -0.4248562 -0.025383156 -0.2421565 1.2884654 0.31271842 1.180029 1.0196961 0.34514698 0.13946958 0.37048817 0.4742482 -1.0579998 -0.501115 -1.1932433 1.2324084 0.494347 -0.28386557 -0.57286537
44 -0.13143368 0.07267544 0.19947127 -0.02146367 -0.3863365 -0.102666974 -0.21534538 -0.23246351 0.3595087 -0.15365933 -0.033379704 0.11845625 0.13923553 -0.11687728 -0.058360312 -0.09368085 0.14128575 -0.28571516 -0.03680334 0.092672445 -0.009870443 0.2880328 -0.17690662 0.050650585 -0.13013603 -0.124108754 0.16128407 -0.097908214 -0.35596424 -0.10918933 0.3297055 0.15601477 0.11991334 0.20943655 -0.29236683 -0.085963 0.04209787 0.050996944 0.3955826 -0.10638457 -0.0760038 0.011343638 -0.14146689 -0.32284182 0.2820107 0.10901932 0.13915743 -0.020587191 -0.28413314 0.006241569 0.15530428 -0.24258712 0.23250465 -0.21346802 0.18326229 -0.095617846 0.1498043 -0.08572477 -0.09097216 0.14087959 0.031223467 0.024047198 -0.20639957 -0.061490964 -0.20149101 0.02429124 -0.13734357 -0.17836444 -0.032367818 0.06616985 -0.041191023 0.3375283 -0.21282353 -0.12076966 -0.0610639 0.021293657 0.05324174 0.025209002 -0.028503532 0.001701759 -0.038193423 0.019437611 0.055718273 -0.2882792 0.27495754 0.008660409 0.013810231 0.0026855161 0.13681602 -0.1634081 0.123632595 -0.025138613 0.0657334 -0.2356786 0.14511198 -0.011700235 0.057220593 -0.08860294 -0.2121317 0.08756896 -0.12663694 -0.096431434 -0.0774236 0.05879508 0.007827979 0.19605784 0.00026602496 -0.1704887 -0.06965529 0.2375093 -0.06664392 -0.26422283 0.3155813 0.10369385 0.36619672 0.3127418 0.078880645 -0.15885618 0.15126862 0.1142299 0.1422958 -0.15103033 0.0030959512 -0.07522119 0.05399977 0.06896149 0.21569073 -0.19570081
141 -0.12353095 0.3536832 0.3181037 -0.14418063 -0.40343794 -0.12566039 -0.105750315 -0.12153617 0.23513 -0.17676432 -0.11195018 0.44466853 -0.10118952 0.021095468 0.19441962 0.03686291 0.024272742 -0.48961055 0.15937304 0.117510885 0.027708638 0.25325838 -0.032912906 0.4345064 0.14001186 -0.1703281 0.14279711 -0.22274323 -0.18110946 0.12966004 0.19880332 0.09655515 -0.05406641 -0.10896258 -0.06421886 -0.09452231 -0.10118305 -0.07732851 0.39810404 -0.035100035 -0.22476603 -0.17216893 -0.04471136 -0.4059068 0.33328307 0.21871191 -0.19765426 0.21257974 -0.25077468 0.018316474 0.02084814 -0.38410226 0.15703991 -0.12224933 0.17043768 -0.3403805 0.06825549 -0.22624098 -0.31437373 0.36826995 0.056325592 0.025651854 -0.27705288 0.28890613 -0.15025 0.36375654 0.13650389 -0.24559797 0.012815023 0.23055999 -0.105638675 0.56434274 -0.15023825 0.020110015 0.33170107 0.22583216 -0.012767369 -0.038313642 -0.27965206 -0.24494791 0.0036716575 0.11389517 0.02892727 -0.08896558 0.14116637 -0.14196265 -0.22754645 0.036909316 0.3341646 -0.19878659 -0.15272233 0.06711467 0.15774977 -0.5656609 0.013753395 -0.0027944243 -0.1129661 0.0053173597 -0.15394989 -0.06508274 -0.15100633 -0.45713106 0.24216138 0.21016085 -0.29911998 0.3199905 -0.11689001 -0.062614776 -0.07836068 0.3666086 -0.09275953 -0.13600998 0.39380878 0.3896235 0.26134342 0.31910497 0.25239095 -0.050995834 0.018650856 0.24428931 0.16491985 -0.23498033 -0.1494514 -0.35249332 0.19533452 0.14695582 0.07449472 -0.13975191
7 -0.1952437 0.06594425 0.44267684 -0.0003425714 -0.3053545 -0.17842984 -0.2261516 -0.1910193 0.23311204 -0.03615352 0.020882068 0.49855766 0.05597204 -0.1720978 0.14879541 0.06113286 0.1648606 -0.5384645 0.081972994 0.20496398 0.2613531 0.12491821 -0.023465212 0.31519103 0.2694366 -0.20946322 0.1570993 -0.07909472 -0.2166576 0.045885578 0.13689274 0.06506195 -0.1896846 -0.18066189 -0.10947423 -0.25400004 -0.24432677 0.040730465 0.3381839 -0.053260323 -0.13847 -0.13268416 0.0033440634 -0.38898155 0.32799497 0.09828439 -0.21708561 0.35547277 -0.28573725 -0.052660607 0.0018805409 -0.35276544 0.21182802 -0.25185877 0.030020086 -0.29064313 -0.0443503 -0.15467575 -0.48905867 0.29333222 0.073857166 0.055402923 -0.18490341 0.34538034 -0.10640179 0.40831086 -0.04968477 -0.24392562 0.040887937 0.108135715 -0.03883996 0.40398943 -0.088336244 0.027427595 0.29911166 0.31781992 0.13089201 -0.1372396 -0.42425883 -0.22859864 0.034864787 0.008203721 0.013595772 -0.10367717 0.0048546246 -0.055657774 -0.13472074 0.10658089 0.2629155 -0.14261025 -0.037476014 0.079681635 0.01178168 -0.3884993 -0.052428722 0.07278102 0.038460057 -0.044880677 -0.17858356 -0.026058218 -0.19786839 -0.3350233 0.28927535 0.18735386 -0.20532183 0.33331633 -0.13692321 0.100328915 0.02169105 0.2781468 0.10194756 -0.335484 0.4291176 0.21636175 0.21954189 0.104442425 0.23347391 -0.11440414 -0.06477548 0.15638793 0.1659499 -0.15182988 -0.099670425 -0.2320728 0.08047254 0.1523539 0.001688293 0.061550837
280 0.0945949 0.211495 -0.27349007 0.21528938 0.31357282 -0.31337452 0.33984613 0.3443517 -0.17795455 -0.5592909 -0.105068825 -0.0030663805 0.36205414 -0.19788833 -0.16413249 0.29060134 -0.47305435 0.6049403 0.29886684 -0.20746315 -0.08570697 0.28375393 -0.6363696 -0.010565024 -0.048530992 0.35622498 -0.35206833 -0.33053353 0.08537408 0.67836726 -0.078050576 -0.3586752 0.3265032 0.5430368 0.46949577 0.88588506 -0.063269705 -0.5107201 0.14197758 -0.24934882 0.20448753 -0.29936892 0.070978194 0.5181639 -0.19476533 -0.06981288 0.12831686 0.1223884 -0.17087896 0.06416645 -0.15311106 0.03592564 -0.0057046697 -0.02179008 0.2898699 0.00116124 -0.073500566 0.38402647 0.17400543 0.12741601 0.20594788 -0.29417872 0.15627187 0.0062136822 0.053501155 -0.31782085 0.44669038 -0.2878273 -0.05618482 0.23232988 0.31615278 -0.17879783 0.4134983 -0.0029749088 -0.06026363 0.5415844 -0.084215224 0.08925488 0.13062674 0.7226006 0.03860772 0.16141878 -0.15367825 0.2957759 0.054328255 0.20176332 -0.33602998 0.14465094 -0.30536026 -0.05509477 0.029502554 0.27749965 -0.068565674 0.37750936 0.17738365 -0.031812605 -0.40792805 -0.03091523 0.31785077 -0.0058487523 0.111561 0.19690424 -0.17148328 0.033750497 -0.20369859 0.3106797 0.14511326 0.016059546 -0.38972732 -0.17457657 -0.3756837 -0.18244407 -0.3267127 -0.38154787 -0.022610508 -0.13248199 0.1796085 0.31424487 -0.22530955 -0.15229544 0.61388934 -0.060250103 0.582035 0.21546204 0.19381955 -0.5789778 0.15087163 -0.56426007
493 0.03487225 -0.15185931 -0.115407206 -0.21009266 0.74174494 -0.53331524 0.45657164 -0.09553543 -0.1285507 -0.040067803 -0.084030725 0.34074968 0.48178926 -0.12690341 -0.11158479 0.2591665 -0.42060465 0.5441093 0.045338333 -0.157378 -0.09592743 -0.20383473 -0.48756322 0.24566439 0.0046562254 0.22251216 -0.059729986 -0.786542 0.52908164 0.8503036 -0.15963387 -0.019744188 -0.010650239 0.5595493 0.38346028 0.95987463 -0.31353715 -0.23791379 0.03069818 -0.08228382 -0.0835584 -0.5639499 0.23602405 0.24550492 -0.06472619 -0.2733287 -0.51454353 0.017319396 -0.100894906 -0.13154942 -0.38061845 -0.3381489 -0.35186002 0.22384185 0.40345734 -0.037339546 -0.4160242 0.34400922 0.3767491 -0.12163281 -0.05224187 -0.63493407 0.48883966 0.26663762 -0.044107065 -0.6077793 0.42509353 -0.5103817 0.22421952 -0.037187476 0.04362787 -0.16811922 0.064103276 0.14798568 0.050733637 0.12697415 -0.12488649 -0.17640482 0.5757094 0.3269213 -0.003559409 0.46604946 0.17737176 0.59679216 0.025437659 0.23097943 -0.5940829 0.5751593 0.093466096 0.24111167 -0.37601343 0.29967737 -0.24080278 0.22937243 0.36531204 0.0933568 -0.1672618 0.099216186 0.42506772 -0.030861886 0.23430027 0.507912 0.29306874 -0.35873768 -0.13500944 -0.017430762 0.22094002 0.61033446 -0.413685 -0.27747634 -0.41292548 0.08400407 0.60899794 -0.31084004 -0.24363613 -0.012685622 0.63033533 -0.15982716 -0.6068209 0.13957182 0.09783346 -0.26340508 0.120835826 -0.02421656 0.40984792 -0.35500935 -0.19952421 -0.695708
11 -0.19715005 0.18161808 0.3960425 0.068190604 -0.21671079 -0.040401645 -0.11990187 -0.08696296 0.13766257 -0.00079125044 -0.09475499 0.49914685 0.009187263 -0.0321952 0.27787775 0.06925785 0.103390604 -0.4519344 0.27286395 0.040349014 0.26342356 0.17782654 -0.028905133 0.3270943 0.16065072 -0.048285156 0.028260823 -0.038476907 -0.121804066 0.26128128 -0.0030130306 0.03109889 -0.045718394 -0.21389796 -0.0011689507 -0.14833991 -0.22432296 -0.1456342 0.33017042 -0.06547933 -0.078957535 -0.07119181 -0.112226754 -0.2483753 0.17584743 0.1315593 -0.14672257 0.33476198 -0.25877666 -0.23176903 0.039032653 -0.32627463 0.20750712 -0.24145497 -0.10605108 -0.33356646 0.025881363 -0.07910157 -0.38342 0.28772256 0.09900156 0.13707738 -0.19758199 0.18114272 -0.013695519 0.44368505 0.042885903 -0.10508545 0.002572792 0.2097379 -0.05474991 0.31621423 -0.013380226 -0.048295476 0.37029874 0.38994932 0.06209666 -0.024370573 -0.44705316 -0.20835486 0.044540435 0.028809398 0.01134016 -0.020841684 0.002071932 -0.002369452 -0.27129212 0.03411915 0.35067445 -0.10569674 -0.108541586 0.18416813 0.018570676 -0.34686488 -0.10994704 0.05135348 -0.01084096 0.007253983 -0.13960822 -0.13502832 -0.20504962 -0.39481133 0.31042814 0.12801994 -0.23253581 0.2766491 -0.19889542 0.15989828 -0.10514686 0.23400028 0.033950154 -0.32696363 0.31191602 0.12092268 0.2589128 0.035525896 0.17656018 -0.070441134 -0.08746538 0.087236844 0.16439775 -0.066680424 -0.052765854 -0.23192725 0.13029349 0.06270729 0.005448765 -0.047225967
498 -0.0044804523 0.20561527 0.24554846 0.32695574 -0.28663886 0.010441733 -0.18254931 0.06345881 0.098115966 -0.17743585 -0.14258617 0.22935645 -0.092596374 -0.067177035 0.044932436 0.06573492 0.09002856 -0.20547658 0.16519327 0.08726089 0.09258599 0.12204163 -0.17794746 0.017826712 0.2214201 -0.15060838 -0.06781974 0.42214036 -0.21572521 -0.10377511 0.00983559 -0.2904863 -0.075004146 -0.3184819 0.1283388 -0.19632886 -0.038736194 0.034749508 0.28932747 -0.08548661 -0.052555703 0.10509359 -0.12901431 -0.010530713 0.22347681 0.08178414 0.18479678 0.27913734 -0.22196873 0.14478457 0.018943926 -0.05001693 0.2403218 -0.11497256 -0.054516383 -0.01505918 0.024663245 -0.15513295 -0.4884948 0.11069512 0.20330007 0.15369126 -0.18493184 0.21198888 -0.15861954 0.49008393 -0.092141226 -0.0011311468 -0.059302945 0.31458417 0.24600145 0.1435419 0.066723794 -0.07967371 0.12775876 0.4014454 -0.013552188 0.1254451 -0.4334735 0.08907977 0.11666597 -0.08501574 -0.06362674 -0.016261641 -0.037394576 -0.18428276 0.020210208 -0.08597766 -0.190828 -0.28179783 0.20746353 0.02040149 0.095517814 -0.14764348 -0.280047 -0.018741677 -0.020370372 0.15577167 -0.11838347 -0.13698374 -0.05263354 -0.3616379 -0.008973031 0.21218494 -0.23511441 0.2168972 -0.15406355 -0.30921924 0.18505894 0.19651885 0.1857665 -0.22574562 -0.1023805 0.020538004 0.12341461 -0.030459814 -0.17551598 0.17066173 0.046093926 -0.010912998 0.25151646 0.07668619 0.088503994 0.07278277 -0.0447507 0.0044904402 0.04812789 0.14208543
506 -0.3073634 0.18539156 0.2980313 -0.17788681 -0.488117 -0.092980735 -0.17644933 -0.1959422 0.31784162 -0.18779594 0.027388776 0.20186503 0.018011006 -0.039861877 0.055020034 -0.12428843 0.0779228 -0.5451697 0.033641297 0.19423456 0.10027892 0.3916367 -0.010781875 0.32156664 -0.027613087 -0.12326517 0.2457182 -0.25790367 -0.39091322 -0.026854599 0.35631016 0.26280138 0.10820099 0.13559715 -0.35879514 -0.19021139 -0.05393942 -0.11384939 0.43645513 -0.058996547 -0.13997023 -0.13855635 -0.07883019 -0.5624159 0.3295272 0.19717719 -0.022079783 0.120668806 -0.24819933 -0.05285953 0.17171662 -0.4093825 0.2286526 -0.26295045 0.17671593 -0.37872607 0.09755219 -0.18110527 -0.19610034 0.4060888 -0.03788418 0.021444071 -0.32368186 0.07229134 -0.13081136 0.14103726 0.017679075 -0.24287137 0.000633577 0.11155769 -0.12337433 0.61537457 -0.30939785 -0.02832035 0.09797455 0.023901362 0.087934785 -0.114857234 -0.21061558 -0.19737273 0.0036669069 0.04072759 0.02951115 -0.35424832 0.32566106 -0.052170884 -0.13555457 0.013293162 0.418988 -0.111517206 0.039304137 0.012668687 0.0947016 -0.54324573 0.15329875 0.024097057 -0.08387525 -0.2295464 -0.27020434 0.07939619 -0.31762126 -0.29812467 1.41320625e-05 0.15624925 -0.068445474 0.32604238 0.029216625 -0.051873736 -0.14344399 0.36881968 -0.107840255 -0.34837243 0.4818207 0.33715016 0.4686871 0.45281 0.25440907 -0.21682633 0.13570905 0.22281463 0.14924517 -0.2905295 -0.13326687 -0.252106 0.10004895 0.122045 0.17157604 -0.18336397
183 -0.5659489 0.04166347 -0.1755777 -0.10905094 0.5456123 -0.36052054 0.25331476 0.27213278 -0.10305183 -0.2769441 -0.041534465 0.020672925 0.008605547 -0.005706873 -0.23063742 -0.032423977 -0.6111199 0.08245402 -0.02193652 0.30660504 0.07855002 0.014680926 -0.13639653 0.14755674 0.2717001 0.36882815 0.030292567 -0.23181736 -0.013991924 0.42480582 -0.29145098 -0.51021403 -0.12058561 0.3137712 0.25179413 0.3182032 -0.35459042 -0.65358764 -0.08424581 0.20211715 0.16061291 -0.33436713 0.37548882 -0.011206015 -0.2888373 -0.06576587 0.28646883 0.29850066 0.27257133 -0.14313503 -0.19504194 -0.38921493 -0.36904573 -0.0073896623 0.19554414 -0.42031822 -0.24339205 -0.09342224 -0.117492005 0.39923632 -0.13849817 -0.37542236 0.07318894 0.5487351 0.02725004 -0.022487609 0.34045866 -0.19000135 0.35886142 0.15377396 0.32081214 0.05447377 0.043633915 0.12081051 0.14896192 -0.13074534 -0.10298918 -0.25432858 -0.18876249 0.35716912 0.3028213 0.31143248 -0.14811258 0.23590955 0.09184092 -0.31631938 -0.45123327 0.12149909 -0.045986306 0.11409335 -0.0011519019 0.13939276 -0.20052761 -0.14790404 -0.018166846 0.099372484 -0.40344232 0.06869494 0.17178717 -0.1473363 -0.23179072 0.047835916 -0.0018543534 -0.10546978 -0.33876285 -0.023269603 0.31080857 0.4454763 -0.119886465 -0.058475353 0.011716785 -0.27179766 0.30745736 -0.21129234 -0.19070129 -0.027705695 0.3627673 0.10865549 -0.21953972 0.061273795 0.16390997 -0.11907643 -0.005359844 0.51700395 0.33271542 -0.2508616 -0.24059309 -0.07248368
19 -0.30774808 -0.13286574 0.6564604 0.022782646 -0.34398767 -0.23373073 -0.2971175 -0.13465889 0.068675414 -0.0688438 0.1734144 0.6289571 0.015984775 -0.34887433 0.11869702 0.22137272 0.109927654 -0.6207454 0.14673556 0.28272924 0.47359353 0.06578451 0.05669501 0.27832234 0.31329536 -0.19808738 0.028459769 -0.09735689 -0.2220136 0.048848182 0.015209551 0.013068558 -0.24121265 -0.3632438 -0.1275978 -0.38809827 -0.4376185 0.0418415 0.11488884 -0.09847753 0.046988726 -0.11521723 0.08574036 -0.1681019 0.29064423 -0.023577625 -0.3069967 0.45396549 -0.31660253 -0.059540756 -0.07664183 -0.21767241 0.2593992 -0.4233629 -0.10245725 -0.26363453 -0.08668197 -0.080119744 -0.60981715 0.32334223 0.15772445 0.19918247 -0.30304134 0.15901887 0.15557781 0.5724626 -0.07161139 -0.17773911 0.006446995 -0.08327248 0.038763016 0.2659923 0.09829315 0.05338792 0.2193621 0.44895387 0.24378476 -0.22350678 -0.67833775 -0.20988625 0.1635747 -0.08950642 -0.067937106 -0.1048599 -0.1538484 0.1159317 -0.014335852 0.090037785 0.35186476 -0.2054423 -0.006420108 0.08768937 -0.08730891 -0.2803368 -0.10068957 0.09104294 0.05984567 -0.17314337 -0.21818653 0.0023724698 -0.09376677 -0.2862683 0.31806034 0.21302958 -0.16030148 0.36725506 -0.08076383 0.3208371 -0.041883796 0.15376356 0.2760311 -0.422859 0.35149255 0.07847863 0.20023379 -0.20866811 0.07813204 -0.05905904 -0.18302271 -0.10133211 0.23966792 -0.069068685 0.044192076 -0.21163462 -0.09995408 0.12226325 -0.0060869423 0.28214422
499 -0.014456151 -0.15510918 0.22423072 0.38533023 -0.54062563 -0.024535416 -0.43335173 -0.32732815 0.5094867 -0.18069795 -0.09123904 0.23667616 0.37026706 -0.2751323 -0.1933884 -0.07109576 0.40401593 -0.26483986 -0.10734356 0.06738605 -0.14092901 0.26890054 -0.43177357 -0.012332888 0.016548967 -0.354576 0.36201504 0.19217083 -0.52879673 -0.22103347 0.5191986 0.14131355 0.17228289 0.22904758 -0.3208192 -0.09323758 0.058566935 0.26181746 0.73603576 -0.28847414 -0.15454301 0.02881237 -0.26332358 -0.35972163 0.41214958 0.016575404 0.3175666 0.045442652 -0.63085467 -0.12492176 0.3589195 -0.28959104 0.3990276 -0.35211506 0.24375458 0.10062902 0.18424793 0.046750467 -0.3060113 -0.10384358 0.18326615 -0.005526789 -0.06438813 -0.0772333 -0.3955832 0.10899432 -0.5021561 -0.17937502 -0.22935168 0.10738387 0.04318167 0.3427194 -0.32033804 -0.11944554 -0.1893565 0.18221447 0.2691713 0.05350462 0.014075381 -0.04478763 -0.07764938 -0.0030314913 0.32240298 -0.28823325 0.3853204 0.07835656 -0.04571841 0.060772516 0.1597801 -0.3826818 0.30467722 -0.035337765 0.14715162 -0.098051794 0.051050678 0.05207197 0.3774994 -0.098211706 -0.19838473 0.028469065 -0.09263684 0.07221176 -0.14684854 0.008771653 0.016334899 0.11775386 -0.16025288 -0.39851648 -0.02639864 0.12091933 -0.14782038 -0.32910126 0.4436628 0.017683582 0.42763087 0.34512243 -0.019519692 -0.30965528 0.21872552 0.2257666 0.19125976 -0.13335116 0.014900253 0.053220075 -0.19115719 0.01608918 0.39351928 -0.23199122
232 0.31131414 0.11615384 0.07876049 0.35883403 0.13924447 0.15243621 0.1932875 0.22107787 -0.32606545 0.0045792726 -0.20096385 0.015349422 0.07160058 0.011901035 0.07886856 0.0666894 -0.07306719 0.37431604 0.42949182 -0.3366032 -0.031781994 0.12521987 -0.2844306 0.0020020304 -0.07462748 0.26787418 -0.2857063 0.05371009 0.25951555 0.42339525 -0.2166141 -0.15151161 0.12549555 0.06026185 0.3485428 0.4540108 0.03848229 -0.32450557 0.08966052 -0.09305091 -0.01019544 -0.19044073 -0.25472635 0.4294992 -0.063116945 -0.1582273 -0.059008095 0.059250176 -0.181589 -0.16727859 -0.097765036 -0.004668039 0.088360846 -0.079124436 0.04897933 -0.07630348 -0.011341512 0.29325163 0.038931962 0.0806006 0.12372131 -0.09748832 0.19693577 -0.083178006 0.1571463 -0.048498325 0.12700108 0.013542697 -0.19670546 0.24075773 0.112936705 -0.19013458 0.16717258 -0.05163113 0.19711651 0.48388925 -0.17351818 0.16156301 -0.040419545 0.37012616 0.11957845 0.010803342 -0.16691436 0.26509416 -0.028046621 0.13287106 -0.32149267 0.18787938 -0.053981364 0.013818856 0.046236936 0.2559777 -0.0017011568 0.27282545 -0.082249165 -0.06025273 -0.19419082 0.10165392 0.056127716 -0.15515584 0.19775261 0.007392772 -0.030081637 -0.12506026 -0.16036609 0.20904307 -0.12266833 0.07015823 -0.18230852 -0.22388126 -0.13413802 -0.11162012 0.017317243 -0.38030055 0.07256676 -0.14644638 0.05941838 0.2233588 -0.3957138 -0.14141741 0.20589094 0.076619536 0.47420225 0.08375374 0.08861448 -0.4057894 -0.05799897 -0.23697285
451 -0.6356664 1.0395908 0.13378662 -1.2108357 -0.17857245 -0.4428712 0.5046016 0.010695574 0.122670025 -0.45069402 0.13424206 0.43137157 -0.51633596 0.34518015 0.6386017 0.12428207 -0.70331514 -0.7819571 0.20625377 0.22360845 0.4179412 0.47558275 0.5686349 1.1124133 -0.057286017 0.052382067 -0.14293268 -1.1577222 0.16946955 0.44294196 -0.09853892 0.3321342 -0.17029601 0.05004021 0.15279709 0.040586747 -0.05670295 -0.7519276 -0.09448721 0.26950732 -0.26474813 -0.4052303 0.3312382 -0.6695047 0.016598338 0.7259618 -0.8955901 0.28375575 0.62724435 0.350872 -0.3703575 -0.37870926 -0.22371988 0.3557191 0.114709966 -0.8924985 -0.17368165 -0.4074635 0.0031771515 1.0929071 -0.23171106 -0.058815762 -0.62061924 0.6037182 0.1725699 0.13713643 1.2792913 -0.5595603 0.42501864 0.13581258 -0.31145644 0.92155194 -0.06701138 0.197178 0.6086923 0.084319204 -0.2625083 -0.34847692 -0.4123962 -0.444111 -0.06712786 0.32493928 -0.34084332 -0.020438127 -0.041337244 -0.43678916 -0.31037354 -0.060452137 0.5986221 0.42774573 -0.6086245 0.098344736 0.108864695 -1.1760757 0.48202077 -0.052263908 -0.92306006 -0.12258187 0.12817581 0.104105175 -0.5194198 -0.977996 0.54751515 0.4767128 -0.3863663 0.8546582 0.47987515 0.30398482 -0.21838921 0.91056347 -0.24178912 0.0071306885 0.2531839 0.9373934 0.22101209 0.75268275 0.7752553 0.0861524 -0.08277866 0.33082443 0.21165292 -0.712361 -0.4162708 -0.8599432 0.86690545 0.36088705 -0.30696985 -0.3703885
168 0.111125484 -0.1277884 0.06335323 -0.025678143 0.63786477 -0.39080045 0.31780484 -0.0618059 -0.24524495 -0.025569275 -0.20523997 0.17249545 0.28343996 -0.046483118 -0.21665058 0.14451577 -0.37187868 0.5095485 0.13847427 -0.047193572 -0.04125027 -0.21834776 -0.4871433 0.03552518 0.02889788 0.22331856 -0.2280763 -0.32793114 0.47680894 0.4828362 -0.28253606 -0.22245695 -0.20181742 0.23256886 0.47442365 0.7839405 -0.16277789 -0.13761611 -0.075855166 0.019412747 -0.019321343 -0.33416584 0.10000572 0.46573845 0.09140074 -0.4354691 -0.3004489 -0.019397506 -0.043458346 0.07410286 -0.53689903 -0.14903606 -0.28737193 0.2634956 0.35839447 0.0684514 -0.43376055 0.11685423 0.236739 -0.099998996 -0.014980065 -0.48227194 0.338307 0.35935804 -0.08360658 -0.35198405 0.28482002 -0.28819832 0.22300808 0.13208856 0.2244419 -0.3501871 0.16561629 -0.014882061 0.021407891 0.12141971 -0.37029237 0.06755077 0.32002577 0.5620889 0.15716442 0.27399933 -0.108590364 0.5762332 -0.15374407 -0.051489234 -0.25802955 0.4401606 -0.30467427 0.105889514 -0.23275758 0.19790922 -0.29786772 0.2082563 0.05354742 8.040317e-05 -0.20340864 0.3863842 0.25381377 -0.08095345 0.3844982 0.28844023 0.22873886 -0.30285028 -0.20977867 0.0030648215 0.1874529 0.33438712 -0.12649775 -0.14503813 -0.048576698 0.0111498 0.33725312 -0.37032768 -0.29367203 -0.17891951 0.30820903 0.14238273 -0.53712606 0.0044949 0.07154174 -0.03684051 0.28334913 0.104087085 0.3340959 -0.3607412 -0.24647756 -0.27556714
213 -0.10362911 0.36348498 0.44506449 0.28980953 -0.4117305 -0.027887484 -0.20980127 -0.06422984 0.2293558 -0.14446887 -0.30490103 0.4887641 -0.1523896 0.008338249 0.15801178 0.0030825385 0.08766507 -0.4626604 0.33603224 0.09108428 0.121895894 0.26121983 -0.21738294 0.28007233 0.31585613 -0.17915279 0.018212354 0.29780972 -0.2505348 0.030876543 0.074039385 -0.2136474 -0.19093361 -0.35654253 0.12518035 -0.2161079 -0.17129228 -0.043115083 0.57762736 -0.10256099 -0.21628489 0.004349048 -0.202126 -0.26459888 0.38338178 0.13812618 0.08296643 0.43706945 -0.36511248 -0.033889983 0.019920396 -0.338778 0.29949763 -0.17390968 0.0023428528 -0.24097054 0.07423268 -0.28342736 -0.6652078 0.22615533 0.22202289 0.102029786 -0.2722387 0.4077023 -0.25684187 0.72175133 -0.04514896 -0.09733928 -0.07875404 0.48345312 0.123176575 0.38408768 -0.017382557 -0.1011361 0.39106512 0.44755903 -0.0682417 0.15513249 -0.5014889 -0.09611335 0.1609206 0.029734788 0.0036652146 0.048671573 -0.0016805565 -0.26942238 -0.22971159 -0.0253231 0.10667723 -0.36032772 -0.07052773 0.09775559 0.15887539 -0.4647808 -0.35228708 -0.036844406 -0.00066204305 0.2689158 -0.1962047 -0.25936866 -0.1270633 -0.58850557 0.25051013 0.24204582 -0.41941932 0.28707328 -0.29765147 -0.21609399 0.060126476 0.38490146 0.069603264 -0.24797589 0.24101192 0.27327025 0.29676944 0.10745917 -0.015892396 0.06346856 0.07703392 0.21396677 0.2188444 0.01636816 -0.01453077 -0.106603466 0.040370923 0.06830269 0.048863433 0.071746334
358 -0.19516607 -0.10939079 0.34725708 0.20571539 -0.3679026 -0.056868747 -0.3328632 -0.24585466 0.36595193 -0.04667826 -0.024299338 0.1109416 0.09474168 -0.1820845 -0.1616705 -0.14193498 0.22093464 -0.33404353 -0.09725913 0.21759185 0.078180075 0.16730957 -0.18460493 -0.09852176 0.05175517 -0.19078508 0.18706249 0.28686532 -0.39968902 -0.32879978 0.25304532 -0.04356897 -0.03964644 -0.025893405 -0.25248185 -0.30311438 -0.028655142 0.20237125 0.42183244 -0.096662894 -0.09840383 0.10195737 -0.17525658 -0.32349154 0.34859952 0.019153537 0.30591255 0.099599354 -0.30995917 0.021377621 0.13292691 -0.21589577 0.2754044 -0.2646112 0.11466139 -0.017875684 0.04682214 -0.18403271 -0.35928687 0.040217225 0.08632778 0.033680167 -0.15942103 0.09062569 -0.2632307 0.2112049 -0.3610242 -0.08696857 -0.0016282039 0.13103949 0.15548398 0.25584817 -0.24865417 -0.12442085 -0.11798293 0.012912108 0.081793755 0.026452977 -0.18537296 0.080278344 0.08658703 -0.042806983 0.05279328 -0.25642097 0.20185983 -0.113804765 0.10616025 0.017940674 -0.04638768 -0.2728374 0.3136544 -0.09249352 -0.0040742913 -0.1901058 -0.085231036 0.030055316 0.16090594 0.0022756879 -0.271923 0.020194964 -0.12907067 -0.09737225 -0.12767693 0.023092894 0.0014839813 0.13311058 -0.016378263 -0.23389712 0.13987269 0.24325961 0.1646238 -0.38063687 0.36217296 -0.029865855 0.336067 0.18443635 -0.06931347 -0.18749994 0.12641223 0.08850067 0.09764966 -0.029072633 -0.0055322363 0.19218348 -0.05952516 0.07269959 0.11349055 0.039184753
529 -0.03141318 0.6935625 0.103589445 0.13282803 -0.60134107 0.04017174 0.025775481 0.063313216 0.22562253 -0.34352034 -0.34067938 0.3163885 -0.1380704 0.1664547 0.23975831 -0.05487038 -0.022605117 -0.3241152 0.40593112 -0.084049866 -0.19756012 0.6171348 -0.17335708 0.5050982 0.08545095 -0.010702137 0.17323099 -0.19425362 -0.29262698 0.32500547 0.34810752 0.105210744 0.15518132 0.11627315 0.06917631 0.16209768 0.11596083 -0.3761764 0.7575922 -0.17188457 -0.31072772 -0.25208628 -0.21149549 -0.41533548 0.21881603 0.38917994 0.11049689 0.26309052 -0.39305735 -0.1610334 0.2308506 -0.43998793 0.26932117 -0.21019739 0.28531334 -0.41201064 0.31441048 -0.13555959 -0.30016017 0.4382423 0.16433538 -0.044046026 -0.21895844 0.26131883 -0.2471857 0.3476102 0.21212079 -0.20044598 -0.22490007 0.5249185 -0.16340363 0.7341425 -0.16724789 -0.04037825 0.44955447 0.39837557 -0.048642643 0.08717919 -0.1967286 -0.15250899 -0.051957186 0.11548981 0.056928564 -0.06677368 0.28860095 -0.14703499 -0.55514824 -0.02203357 0.38679612 -0.33531347 -0.19291046 0.15101054 0.35482356 -0.6008241 -0.052194547 -0.04798369 -0.19912985 -0.009170604 -0.15770373 -0.16930781 -0.23356932 -0.6086007 0.14790098 0.2887395 -0.4802661 0.41147277 -0.3244068 -0.32336038 -0.23630612 0.3585072 -0.47196048 -0.026971294 0.23056786 0.512647 0.461051 0.51677287 0.330976 0.034165457 0.20434393 0.44190502 0.30665213 -0.25178984 -0.05624809 -0.3682997 0.22088404 -0.033429455 0.282001 -0.37797505
525 -0.15504128 0.041413363 0.33431256 0.21969603 -0.45428145 -0.038086202 -0.35544166 -0.31146133 0.46509212 -0.0757382 -0.21603452 0.3015291 0.11256721 -0.08464682 -0.05132701 -0.16193426 0.26071107 -0.42991787 -0.026209595 0.16880542 -0.058649227 0.21531741 -0.2381045 0.13089886 0.10902085 -0.30415612 0.30954242 0.23289864 -0.4282498 -0.2202344 0.33191282 0.042453155 -0.05672541 0.005676657 -0.23042442 -0.22431274 -0.008258679 0.15081854 0.6381312 -0.0924276 -0.23174754 0.046615206 -0.22171816 -0.471761 0.4440409 0.056774672 0.2556164 0.14832854 -0.4185763 -0.09652832 0.19249627 -0.42047977 0.27099797 -0.22012384 0.16387022 -0.07971766 0.112558156 -0.22025734 -0.413622 0.03680486 0.081420064 0.010240772 -0.1460425 0.19776493 -0.43021384 0.337643 -0.3402332 -0.15159987 -0.045518972 0.24876133 0.034441758 0.40157527 -0.33239624 -0.13967589 0.046667945 0.07425856 0.05430379 0.070916265 -0.14727119 -0.15212072 0.03041118 0.058497164 0.20257318 -0.18171693 0.28295308 -0.18971644 -0.096491076 0.041247085 0.14403678 -0.3167964 0.13512388 -0.029157741 0.109424025 -0.38037542 -0.1036102 0.014026584 0.23471235 0.1521329 -0.24884386 -0.09257171 -0.1565514 -0.21516103 0.054467194 0.045510933 -0.16522068 0.109976955 -0.14709634 -0.2863361 0.08903106 0.28778127 0.011578482 -0.29283527 0.5527318 0.18572833 0.36278507 0.35416394 0.027422788 -0.239327 0.17618132 0.30558205 0.05002749 -0.08431006 -0.13045335 0.020340433 0.011105499 0.1314551 0.17766266 -0.079902254
466 -0.14102349 0.56049526 0.18213375 0.11807469 -0.32244566 -0.0029574572 -0.049483865 -0.044342525 0.2398168 -0.25644568 -0.2716795 0.27472013 -0.21902868 0.25705838 0.30033877 -0.05859484 0.0058722864 -0.39038718 0.30958927 0.02649705 0.04296663 0.26426128 -0.08112033 0.32015982 0.08744109 -0.084295355 0.035804797 0.24749726 -0.21340209 0.04859316 0.11188735 -0.10332083 0.0013797062 -0.22620381 0.093538284 -0.14875077 0.03370545 -0.22590773 0.548522 -0.0786627 -0.18894999 0.0739072 -0.20042542 -0.31333402 0.29451403 0.3632263 0.20763218 0.2840048 -0.116789475 0.07146301 0.10488775 -0.36193076 0.1727359 -0.028756319 -0.007814782 -0.26001462 0.04992707 -0.25895682 -0.42597175 0.20118277 0.044748403 0.08647624 -0.2460183 0.2686342 -0.3208561 0.35520172 0.21743779 -0.07039524 0.038027313 0.4909129 0.08759162 0.4521217 -0.17862155 -0.16421095 0.32630253 0.2554966 -0.19150537 0.1167174 -0.36711678 -0.09297002 0.05081943 0.1046667 -0.006807807 0.018785268 0.15718365 -0.29594886 -0.20259055 -0.10469994 0.021177473 -0.13904549 0.024073288 0.04137158 0.21393278 -0.5600681 -0.111625135 -0.06624856 -0.20355387 0.28044418 -0.10621543 -0.20802617 -0.2406115 -0.63049585 0.03615188 0.18343982 -0.3604423 0.20186113 -0.13248253 -0.38123727 0.1378541 0.43180645 -0.08055802 -0.20116428 0.10856643 0.2680091 0.36155692 0.39661372 0.063331276 0.03617722 0.107489504 0.26435283 0.16666977 -0.077534884 -0.11988401 -0.051839713 0.32994223 0.05885085 0.033160165 -0.19899653
658 -0.91422105 0.12328742 3.8638566 -0.9379545 -0.9599967 0.38591173 0.5647787 -1.4112438 -0.552376 1.0917321 0.77461505 0.41538402 -2.0611064 0.8420874 0.2579344 0.024682738 -1.234499 -0.5869659 1.3137877 0.35309827 1.3759725 0.02241419 1.0765021 -1.1469297 -0.9509905 0.8099205 -0.90865684 0.7969295 0.54720676 -1.1926291 -0.8246783 0.2949645 0.42934236 -2.9994972 -1.7772666 -1.9114138 -1.8423651 1.561978 1.3485893 -1.6446072 -0.92122465 0.7658274 -1.27222 0.19227009 2.5563104 0.47284794 0.2543605 -0.86818933 -0.6980599 1.7371407 -1.0460788 0.37103304 1.0961123 0.00043152613 -0.60994405 1.0150207 -1.0833293 -2.2943668 -1.3352879 -1.3598839 -0.97942895 -0.10436244 -1.1294076 -2.6175382 1.0955744 0.22645766 1.6972382 0.42845803 0.8687737 0.52885675 1.6489477 1.0310317 -2.1459765 -0.58738273 -2.0964344 -0.9315791 -1.6703209 0.0007801354 0.16000631 1.6058882 1.9889921 0.59265244 -0.62111014 0.9519863 -0.10064506 0.5761072 1.8546484 2.152435 -0.564556 -1.6041147 1.210008 -1.0995269 -0.2074755 -1.2647924 0.051941745 -0.9449439 -1.4595324 0.0707114 -1.6239175 -0.044346154 1.5957562 -1.2000333 -1.8685721 -0.793323 1.4143528 -0.6613327 1.6032541 -0.049979925 0.96886045 1.4496104 1.1905348 -1.2448415 1.6596723 -0.57296914 2.6617253 0.173505 -1.8404268 -1.8642986 -1.4383391 -1.0791981 -0.2376761 0.5580686 0.7341764 1.5325822 1.0102484 -0.31700057 -1.3034246 -1.3530581
732 -0.6618821 -0.16689488 1.9070169 0.3518324 -0.5529667 -1.3617634 -0.08541973 -0.9885791 0.39722162 -0.5893587 -0.07587667 1.1092705 0.6319945 -0.6648112 -0.36936298 0.42216673 -0.46799952 -0.05550851 0.645236 0.62438434 0.7425806 0.5382366 -1.3060756 -0.09752479 -0.17009716 0.15636078 -0.19554426 -0.51379514 -0.41823515 0.39660433 0.463224 -0.09819536 -0.097525015 0.024915116 -0.2105505 0.42680004 -0.8497207 0.41325265 1.6072783 -1.059523 -0.5007665 -0.5527958 -0.31490391 0.031698525 1.701561 -0.29066426 0.1694673 0.33576527 -1.4778302 0.6199433 -0.77934265 -0.86000246 0.80170316 -0.8068882 1.0342052 0.368468 -0.55281234 -0.4101516 -0.9920419 -0.10309911 0.17865951 -0.7024911 -0.13241152 0.14831997 -0.46981326 -0.3642777 0.4444786 -1.2747104 0.52077365 0.5395393 1.0444332 0.61159164 -0.5876231 -0.45531082 -0.47537082 0.6910673 -0.54834545 -0.19554509 -0.20477818 1.5056213 0.6743453 0.57562715 -0.12401948 0.6757424 0.3255528 0.46911684 -0.021305414 1.4402139 -0.5351526 -0.9967369 0.4368748 -0.05064423 -0.5124442 -0.4298703 0.44174683 -0.027643107 -0.4230118 0.3568248 -0.44788197 0.28357124 0.39531368 -0.054082353 -0.26943362 -0.24730207 -0.21131791 0.84661716 0.60892415 -0.11155691 -0.09955509 0.67843026 0.2052042 -1.414659 1.8631356 -0.75635207 1.3639661 0.3786835 0.4568535 -0.68566215 -1.068946 0.08425205 1.0191554 -0.47778738 1.031467 0.61743623 1.0521296 -0.81429124 -0.06499306 -1.332232
744 -0.6312295 -1.6367251 1.3499169 1.8144051 -2.4129562 -1.9025933 -1.9648327 -1.182254 1.052549 -1.9612148 0.22536121 -0.009569587 1.6981088 -1.8555115 -1.9870236 0.23535427 0.4448333 -0.088447146 -0.3968071 1.4797518 0.86307293 1.2430205 -1.847179 -1.5282894 -0.7555886 -0.44507712 0.2073618 0.07286213 -2.6401966 -1.9530115 2.1818244 0.6887705 0.23753472 1.2754424 -1.1267798 -0.6522037 0.14161438 1.3772177 1.3522053 -1.5583656 0.7702938 0.4850918 -0.27767664 0.7276403 1.3748597 -0.9682422 1.8953927 0.6372632 -1.9533082 1.0161873 -0.16618733 0.5621456 1.821164 -2.2372525 1.4784367 2.0873325 0.18702725 0.41124266 -1.0333557 -0.5831848 0.78461695 0.35442656 -0.62491447 -0.82459867 -0.89385504 -0.80735695 -1.5846512 -0.97946525 -0.8078383 -0.5429837 1.3714594 -0.45840496 0.09662158 -1.0242847 -2.0426798 0.5194082 0.9566531 0.16085489 -0.44087237 1.6655577 0.3007248 -0.8569848 0.17493661 -1.0072498 0.6468062 1.2822361 1.9118495 -0.24649848 -1.5511618 -1.5133768 1.2084244 -0.8595318 -0.5502055 0.627824 0.66279525 -0.2201726 1.4874003 -0.19727096 -0.85521495 1.5748595 0.3786622 1.396919 -1.0650067 0.7166893 0.5485075 1.193579 0.6496817 -1.7522051 0.09057913 0.081363656 0.56973004 -1.4620293 0.255571 -1.0936931 1.8538451 0.29124382 -0.8407563 -0.23120572 1.0626181 -0.68113536 1.5351688 -0.04005101 2.1504602 1.1555269 -0.62285054 -0.5702283 1.6670132 0.31149936
265 -0.2212977 0.17885911 0.63448346 -0.048629116 -0.3624828 -0.13111985 -0.14221896 -0.096940205 0.043146346 -0.09351101 0.05044902 0.612281 -0.1225705 -0.13093455 0.30379814 0.18145356 0.04407136 -0.6104679 0.25190982 0.1904891 0.4196849 0.0940398 0.15828952 0.42876676 0.32872277 -0.20000428 -0.04057906 -0.038188536 -0.110395454 0.080406055 -0.04017034 0.004085371 -0.27762026 -0.44532457 0.009475306 -0.3558323 -0.31477705 -0.07194158 0.17212106 -0.021890733 -0.118187636 -0.12356213 -0.015760897 -0.19273265 0.3137518 0.09524517 -0.35913548 0.43623918 -0.18970217 0.021066451 -0.11450857 -0.26492885 0.20884885 -0.21446179 -0.10655897 -0.35578722 -0.09653678 -0.15364413 -0.62268734 0.37922835 0.07691615 0.19994938 -0.30644128 0.26871857 0.106333464 0.6361621 0.13337274 -0.19526514 0.046757337 0.10530123 0.01652716 0.33958697 0.030277241 0.032361794 0.4006992 0.5112553 0.07874597 -0.15785831 -0.68627405 -0.28431484 0.16117477 -0.0237509 -0.1317509 0.019970544 -0.19968435 -0.062109202 -0.08756481 0.09479479 0.34070355 -0.12898576 -0.052458916 0.111562714 0.014822845 -0.42442822 -0.11921078 0.03656292 -0.090456836 0.0037906752 -0.1557736 -0.09542004 -0.11907755 -0.51389796 0.33442906 0.25208044 -0.2877215 0.41545895 -0.059637237 0.16829306 0.061543494 0.26751325 0.23095246 -0.3342165 0.31423718 0.21874647 0.20146433 -0.009134362 0.1117192 0.042985607 -0.18083988 0.0030537886 0.17678595 -0.11109772 -0.067369126 -0.30074117 0.05752612 0.16841881 -0.08319654 0.22693652
450 -0.40782344 -0.14310902 -0.04139279 -0.26940864 0.6574484 -0.19483991 0.50028974 0.108205914 -0.40122956 0.053088717 0.07414918 -0.2529775 -0.043853495 0.14836524 -0.28573695 -0.23970376 -0.6887983 0.32266042 -0.06585671 0.28521317 -0.0035761117 -0.12904288 0.21341333 0.054567754 0.23307945 0.6310963 0.19880123 -0.3829962 0.25575972 0.33514857 -0.35410568 -0.2408831 -0.16115029 0.39840078 -0.023956425 0.36539364 -0.3674113 -0.59979135 -0.065351754 0.210863 -0.056155607 -0.60910875 0.3088361 0.009073931 -0.23640135 -0.17158224 0.19124669 -0.035660952 0.38025507 -0.12756139 -0.2728921 -0.45423982 -0.54721904 0.020275144 0.4216672 -0.46435404 -0.39413747 -0.14159407 0.03881261 0.29096442 -0.61429787 -0.7488965 0.41773042 0.36520994 0.21195492 -0.50969726 0.46331915 -0.28504655 0.40954858 0.010800241 0.31736246 0.1234426 -0.46219414 0.28349665 0.019507041 -0.4593927 -0.28335372 -0.49684355 0.19929011 0.5277904 0.43254498 0.42960057 -0.25940418 0.43403786 0.1420475 -0.20553057 -0.49358228 0.7419217 0.033682216 0.20420894 0.22092383 0.042616617 -0.20606498 -0.101270206 0.20555857 0.071372405 -0.5673548 -0.049032044 0.075243324 -0.070346236 0.018854775 0.31562027 -0.30204704 -0.4279202 -0.17513876 -0.2597013 0.57842433 0.6767124 0.07191298 -0.33247438 -0.033011366 -0.20530339 0.8452214 -0.3301623 -0.16810234 0.18251626 0.559161 -0.17856199 -0.6360548 0.110858805 -0.17830588 -0.20773076 0.04844656 0.7585739 0.52360696 -0.3671041 -0.55365366 -0.24826318
362 -0.11878842 0.40845245 0.071611576 -0.10632751 -0.090956494 -0.0784023 0.12281761 0.19039837 -0.071757555 -0.13556415 -0.080330685 0.3041784 -0.19594981 0.07079243 0.208757 0.096293844 -0.18456289 -0.25548902 0.24764664 0.07731993 0.008776833 0.20708252 0.06505705 0.4203985 0.24500786 0.09317597 0.08766534 -0.28349426 0.00032341396 0.42063758 -0.044828705 -0.08246568 -0.014141676 -0.09790596 0.11704871 0.096740074 -0.15383425 -0.3443024 0.20257062 0.012965802 -0.07656237 -0.3208986 0.11918475 -0.19168091 0.017556693 0.20871164 -0.16899104 0.26943228 -0.106857836 -0.080144614 -0.042389322 -0.29615554 -0.031061111 -0.120471075 0.105697885 -0.41879082 0.03449667 -0.2031739 -0.22601303 0.47756228 0.015113721 -0.091065645 -0.15042832 0.36104587 0.031909887 0.30249155 0.35467812 -0.15688418 0.0509389 0.27542606 -0.06840985 0.4666915 -0.007626067 0.14472266 0.4419275 0.26521733 -0.04371277 -0.119624354 -0.30752918 -0.08696124 0.024749076 0.13099942 -0.08156791 0.080148205 0.056213856 -0.108161114 -0.42874557 0.08895596 0.2799308 -0.15091158 -0.19711556 0.14907655 0.13705848 -0.43869796 -0.08577114 0.031207735 -0.2960472 -0.073297225 -0.032776944 -0.13834324 -0.15851296 -0.43279174 0.24641652 0.19770263 -0.40493622 0.22499764 -0.14344354 0.16955954 -0.11755745 0.17368372 -0.15344617 -0.036774527 0.1372537 0.29625857 0.051688835 0.07470697 0.3667219 0.09777137 -0.10593959 0.1779578 0.20506504 -0.168988 -0.08195146 -0.25413832 0.26480165 -0.013253896 -0.040059637 -0.11368031
440 0.23936942 -0.020780817 0.2494658 0.11338816 0.41519713 0.057947043 0.18254668 -0.11979338 -0.18287905 0.20694233 -0.25927997 0.17137422 -0.017933728 0.1599259 0.017909797 -0.048666522 -0.07996442 0.19390482 0.13010445 -0.07589346 -0.009594022 -0.41167682 -0.090762496 0.047183685 0.24021229 -0.011919116 -0.15005809 0.39928117 0.43519834 0.019608533 -0.36946312 -0.31916696 -0.3482653 -0.355221 0.37298337 0.17699541 -0.070925124 0.07955788 0.042096227 0.11216921 -0.2666092 -0.026664892 -0.18512914 0.24216908 0.26900402 -0.23205642 -0.20657675 0.0048969397 0.09386206 0.17052248 -0.31697825 -0.14541775 -0.18790194 0.35938308 0.0070751454 0.008486873 -0.36792344 -0.09640032 -0.21369381 -0.19538942 -0.15620421 -0.264147 0.3000179 0.38003358 -0.16627419 0.13557078 0.06986083 -0.04632492 0.1860092 0.28600994 0.27160272 -0.18609498 -0.09509098 -0.009056302 0.13559726 0.13097921 -0.38615558 0.1197426 0.0485017 0.21926698 0.27045035 0.16122916 -0.12669228 0.49357313 -0.23572464 -0.36229813 -0.058788627 0.37562704 -0.32992104 0.1028375 0.15298094 0.100983575 -0.072141714 0.029747183 -0.2156353 -0.041543707 -0.15069394 0.54409945 0.076779805 -0.28611016 0.31808287 -0.061743293 0.046452213 -0.21922982 -0.24414161 -0.102840945 0.075082004 -0.008711105 0.37624726 -0.05725192 0.25667498 -0.056078497 0.3568372 -0.2517803 -0.2300443 0.015828839 -0.055300508 0.07628566 -0.5018325 0.030929793 -0.14231458 0.09451074 0.05595201 0.2545647 0.21473898 -0.123122275 -0.4149611 0.009823115
12 -0.38413158 -0.1336034 0.72193915 -0.050586615 -0.22675139 -0.18256506 -0.2692856 -0.1437422 0.028778952 0.031662382 0.15640098 0.6342958 -0.13823964 -0.25062746 0.1176197 0.15923376 0.045979496 -0.7141481 0.12744768 0.38040194 0.4791304 -0.07557145 0.18136968 0.31359404 0.4350713 -0.216277 0.06522941 0.042143874 -0.14131644 -0.026839504 -0.11236573 -0.112666056 -0.38776043 -0.557369 -0.105721705 -0.5067832 -0.5055367 0.046151076 0.05393732 0.017748792 -0.007125507 -0.09654687 0.12720177 -0.21939853 0.3379139 -0.04407844 -0.3125199 0.4497215 -0.19234091 -0.02460481 -0.15284741 -0.2855747 0.14404482 -0.31418648 -0.13769016 -0.32666236 -0.18273194 -0.27041885 -0.7158057 0.3459415 0.06893448 0.14842714 -0.32326627 0.32294384 0.14306909 0.69074744 -0.03466244 -0.13116792 0.14076921 -0.021408796 0.10289554 0.30979675 -0.014976522 0.090801604 0.27126485 0.29772225 0.14253016 -0.25616094 -0.74285424 -0.24352385 0.28973523 -0.013296919 -0.09481606 -0.01404136 -0.19566837 -0.07993376 -0.006682421 0.13624339 0.3327379 -0.20090163 0.015123295 0.0411837 -0.09926301 -0.41721156 -0.2130577 0.095795386 0.00047953945 -0.05203589 -0.2341802 -0.08595495 -0.08307667 -0.3872791 0.33956072 0.15646121 -0.22188796 0.2566024 -0.0068110777 0.36586782 0.10955054 0.2153227 0.42458096 -0.41155034 0.47900248 0.109416276 0.12290504 -0.20352702 0.056290384 -0.07358651 -0.25621334 -0.064808965 0.099969 -0.03782322 -0.09776591 -0.11423597 -0.03946279 0.17971261 -0.17251283 0.4080334
426 0.2969052 0.09347367 0.20231332 0.031901862 0.678581 -0.2749407 0.43049583 -0.08371051 -0.3265713 0.4706019 -0.24702443 0.040964786 0.19943279 0.19442523 0.14989085 -0.08114589 -0.15380962 0.5353381 0.2581808 -0.076018974 0.16886312 -0.27824077 -0.24694507 -0.09319919 0.13714898 0.46686083 -0.24209215 -0.13980879 0.62612736 0.5569817 -0.4084088 -0.18555064 -0.37784222 -0.06107437 0.45343596 0.46611065 -0.15288773 0.057369214 0.090267844 0.06358533 -0.34985247 -0.36635593 -0.08299639 0.20346433 0.1339127 -0.25357172 -0.29710245 0.06416493 -0.010686526 0.06139854 -0.58447576 -0.2027402 -0.18150377 0.22675675 0.18721567 -0.072830915 -0.4113896 -0.107166655 0.08853337 -0.08941833 -0.23758249 -0.46824396 0.5776547 0.6517832 -0.11147198 -0.3449155 0.30008003 -0.29167446 0.33595538 0.38775018 0.1293396 -0.281062 0.023615975 -0.068740405 0.46848875 0.17785889 -0.5349828 0.03684884 0.24145411 0.58634156 0.059318718 0.19609603 -0.34091568 0.70246494 -0.3015192 -0.11481531 -0.32001796 0.67241555 -0.5726564 0.21345931 -0.23097023 0.24726298 -0.3368468 0.16889499 -0.1239065 -0.019775324 -0.26027068 0.4913935 0.0868966 -0.09045625 0.16513693 0.025902407 0.29989296 -0.25651473 -0.24285738 0.09258799 -0.113999374 0.32904378 0.13317783 -0.0499198 0.13755254 -0.108334385 0.41587824 -0.38738638 -0.23737854 -0.1435528 0.5240588 0.106943235 -0.69036484 0.14610247 -0.032843012 0.029389767 0.2549461 0.15455693 0.70287204 -0.29102373 -0.5501619 -0.3039545
526 0.10146223 0.042062454 0.072668664 0.11872483 0.42067328 -0.18435332 0.1338856 -0.122885324 0.05237063 -0.005058371 -0.260793 -0.027147802 0.11730873 0.121733546 -0.08666455 -0.10254903 -0.13670689 0.24624254 0.028346566 0.047764614 0.052548934 -0.26423758 -0.31163853 -0.13067085 0.11520382 0.021416375 -0.20159484 0.39549768 0.20856689 -0.060638543 -0.2245795 -0.42994514 -0.31698868 -0.110661395 0.3473357 0.20319445 0.008541998 0.10103471 0.085955516 0.0971578 -0.18996693 0.11396023 -0.12561893 0.13913788 0.23655066 -0.14212227 0.09666036 0.03420376 0.13648388 0.30499703 -0.299332 -0.09673257 -0.13864371 0.34936303 0.064084575 0.109723024 -0.3059653 -0.16262203 -0.11969299 -0.20806186 -0.09822899 -0.24947278 0.24807297 0.48234704 -0.35757864 -0.048042327 0.054524373 -0.1367096 0.27270186 0.3643019 0.3483584 -0.24140424 0.026969625 -0.15693684 0.03408274 0.030447477 -0.40855244 0.17610233 0.09853835 0.42455 0.16460288 0.12969828 -0.18320312 0.36703265 -0.17630093 -0.40639246 0.07251439 0.19715947 -0.6680286 0.11033995 0.14528382 0.042540886 -0.16380662 0.072953284 -0.15806021 -0.072581805 -0.12106705 0.5973428 0.0988294 -0.14202198 0.15128805 -0.035834737 -0.040045626 -0.124322385 -0.2015773 -0.03618256 0.12758586 -0.21155004 0.3628697 0.106156185 0.25408173 -0.15057263 0.107307665 -0.28180653 -0.18452257 0.04226923 -0.053875487 0.15196612 -0.22296245 0.04229573 -0.010983773 0.10200968 0.11246644 0.38671353 0.3011607 -0.12898538 -0.28898284 -0.0670497
504 -0.16557883 -0.08870571 0.46968126 0.11044431 -0.5970226 0.025659475 -0.40588525 -0.359081 0.39210215 -0.018677114 -0.05528953 0.24377812 0.07069881 -0.15496288 -0.090387434 -0.17639613 0.31231126 -0.5264984 -0.015853463 0.19426498 -0.029210927 0.28184795 -0.14599183 0.11314755 -0.03609485 -0.28793058 0.3625322 0.060712885 -0.45567232 -0.27549636 0.4272753 0.2319773 0.04850951 0.021379715 -0.44929677 -0.26493937 -0.005148074 0.1858326 0.561929 -0.14064628 -0.15257475 -0.013464474 -0.23699354 -0.4719244 0.5251462 -0.01342928 0.15286395 -0.012120161 -0.51326877 -0.14001994 0.23150282 -0.38035035 0.34793097 -0.37698472 0.1940782 -0.117255755 0.16322342 -0.20514399 -0.2991092 0.124816604 0.07421632 0.05443268 -0.26295754 -0.08088344 -0.23686999 0.24308708 -0.3779176 -0.1063502 -0.10177667 0.09184672 -0.082136974 0.49290043 -0.3991488 -0.12856974 -0.07660341 -0.04006169 0.08401636 0.0089314375 -0.15137738 -0.14797851 0.048649672 -0.0003113255 0.15028295 -0.35060683 0.3477355 -0.019852463 -0.004576501 0.06894029 0.34998146 -0.35837597 0.15885273 -0.08436061 0.08609424 -0.39855558 -0.007210602 0.019228691 0.22866201 -0.09108328 -0.3979517 0.028756326 -0.07828656 -0.16577785 -0.015032849 -0.011899745 -0.018986547 0.13335183 -0.10714466 -0.19221431 -0.027744707 0.2667708 0.013099633 -0.33006662 0.6516247 0.1858901 0.5111594 0.3169106 0.033010546 -0.29796523 0.13140894 0.20642821 0.028787633 -0.1274131 -0.07100195 -0.13176543 -0.09036079 0.10807121 0.24467762 -0.070205994
856 -0.17893344 0.19643156 0.4762751 0.07488084 -0.3234676 -0.12526996 -0.17519888 -0.0068654646 0.07364828 -0.0354865 -0.08218582 0.52968127 -0.13697752 -0.09282421 0.1748846 0.07518317 0.042803578 -0.54081357 0.26307958 0.22762 0.1989949 0.19063492 -0.018008264 0.3713485 0.37122777 -0.09717324 0.1279403 -0.060374256 -0.17641291 0.19718869 0.03389365 -0.08766656 -0.21221365 -0.3028382 -0.0066808453 -0.18816589 -0.3057352 -0.12512916 0.33949476 -0.03171054 -0.095393084 -0.23345675 0.028205559 -0.29128575 0.3075089 0.058483418 -0.18779102 0.42876014 -0.35357016 -0.13685913 -0.050066102 -0.3896521 0.18759778 -0.3331049 0.069171555 -0.40616363 0.0076032383 -0.28514937 -0.5630265 0.4476063 0.12838194 0.051638756 -0.24740483 0.43726328 -0.041953262 0.61083966 0.037315875 -0.16674332 0.015986359 0.26070502 -0.013852156 0.46417397 -0.0015129461 0.066544496 0.47072586 0.38695425 0.019196562 -0.08519183 -0.57068706 -0.15582272 0.1294573 0.01668136 -0.07683 -0.015734559 -0.026109967 -0.09783223 -0.31198412 0.114418074 0.31009185 -0.31146306 -0.15384252 0.13104478 0.05541806 -0.4933171 -0.25882497 0.053267166 -0.063802935 0.0034832906 -0.24336918 -0.14949693 -0.115880765 -0.49353892 0.38647187 0.21682222 -0.40258053 0.3117258 -0.26463062 0.17019601 -0.03546454 0.2537363 0.09848089 -0.28062272 0.39239106 0.27563646 0.17776929 -0.052118782 0.2578555 0.053085867 -0.1353768 0.14931534 0.19009665 -0.07382337 -0.02754099 -0.27822274 0.0887923 0.055653222 -0.02870968 0.14031124
569 -0.37541476 0.14992602 0.55254143 -0.21493174 -0.38210723 -0.2457089 -0.18964273 -0.20419352 0.23077607 -0.12029239 0.12901509 0.5798665 -0.09011493 -0.16079035 0.22437507 0.11392296 0.035276305 -0.7394554 0.096601024 0.27531332 0.420193 0.16573524 0.19058071 0.44749138 0.25409982 -0.21600111 0.1006826 -0.20650557 -0.22796813 0.010559232 0.07540519 0.12952848 -0.23286411 -0.27506512 -0.1560315 -0.40813372 -0.3174861 -0.03295981 0.24559733 -0.01581553 -0.11181449 -0.10746178 0.08073496 -0.42487735 0.29944614 0.22776105 -0.33190027 0.41197485 -0.15127045 0.04514143 -0.05540693 -0.33137324 0.18535036 -0.25987944 -0.046543088 -0.3774885 -0.044573188 -0.20637614 -0.5560419 0.43240345 0.0199296 0.12075768 -0.37089303 0.28648776 0.02617921 0.48822245 0.11825832 -0.27987936 0.09147508 0.028815826 -0.04263865 0.5082956 -0.12211286 0.056117095 0.2876987 0.3212886 0.15892738 -0.24441741 -0.58146656 -0.33309618 0.09470582 0.024547359 -0.026062269 -0.14729682 -0.02923683 -0.06641398 -0.047975283 0.059128784 0.41248354 -0.09345798 -0.029100787 0.037798483 0.03052845 -0.5501698 0.061073527 0.075875856 -0.076411255 -0.12139422 -0.19309181 0.0019293753 -0.25779432 -0.45994574 0.29640004 0.2602062 -0.18620324 0.43939754 0.03271987 0.19298185 0.013639724 0.38880205 0.16053233 -0.37776738 0.4599043 0.30100027 0.2918671 0.16454373 0.20748119 -0.15129861 -0.085767716 0.091299936 0.19017185 -0.2219684 -0.1847175 -0.26503554 0.1325593 0.24051957 -0.039531056 0.1105692
661 -0.13864848 -0.16546409 0.5634759 0.31795242 -0.40446526 -0.2209994 -0.41333064 -0.0730611 0.14553328 -0.12480776 0.06367664 0.68658555 0.25200027 -0.5060386 0.054914795 0.24735644 0.28250906 -0.54354686 0.16585302 0.22006483 0.35548824 0.12997322 -0.22543985 0.25455087 0.42838538 -0.29088584 0.08864597 -0.00915876 -0.3272161 0.12109875 0.12804523 -0.059728608 -0.19704685 -0.2291525 -0.021572541 -0.22053711 -0.3561689 0.07491092 0.29224145 -0.16920623 0.046270244 -0.16996236 0.0236265 -0.13822292 0.29840714 -0.10251002 -0.24235488 0.5349747 -0.56145835 -0.18093725 0.017147006 -0.22049275 0.3803972 -0.53602785 -0.035078466 -0.2029655 0.030085497 0.045269776 -0.67716205 0.31104535 0.32693344 0.19693777 -0.20382673 0.27782243 0.022994896 0.66226244 -0.29793668 -0.20676117 -0.14996412 0.011328116 0.0042349766 0.22363487 0.23546666 0.043298777 0.29748392 0.70646423 0.36759514 -0.12892129 -0.68227625 -0.18770821 0.061708882 -0.15074578 -0.006221312 -0.14172916 -0.13509914 0.13643005 -0.13624533 0.046727348 0.2906223 -0.32385078 -0.000954111 0.19640501 -0.040640987 -0.13610578 -0.21512394 0.12810344 0.23801817 -0.16715097 -0.18788919 -0.03308558 -0.099358276 -0.21901758 0.42260075 0.2904445 -0.2738906 0.46326157 -0.33735836 0.18996662 -0.11796867 0.06583397 0.18589044 -0.45405343 0.2784648 0.047947697 0.15438075 -0.26991573 0.123215094 0.048303634 -0.09360767 -0.031770155 0.36836466 -0.049169555 0.1580788 -0.26603758 -0.23125827 0.04019734 0.16279005 0.2827667
290 0.5508329 0.12351292 0.25359496 -0.50347114 -0.6864054 -0.538398 0.28649166 0.075458825 -0.42324767 -0.43838325 0.5665291 -0.16210607 0.15083617 -0.4671041 -0.092191346 0.772885 -0.2864658 0.65400666 0.15316579 -0.06034465 0.024312101 0.5694687 -0.111763224 -0.42866242 -0.81531763 0.27228144 -0.44032812 -1.412997 0.02954634 0.23497888 0.4698542 0.8119713 0.67394507 0.33105552 -0.3585401 0.4779262 0.13028358 0.617975 -0.22559811 -0.7142256 0.26955903 -0.3339881 0.19313008 0.84801 0.2030384 -0.03941415 -0.5396705 -0.623926 -0.61042154 0.94262356 -0.54868895 0.9900001 0.43905112 -0.22837904 0.52000964 0.91459996 0.12230374 0.088936105 0.7756721 0.030505918 0.26468766 0.12954015 -0.29665124 -1.1300074 0.58307314 -0.9862164 0.75302523 -0.48928213 -0.19437642 -0.49771702 -0.020629482 -0.11190937 0.27131873 0.11349636 -0.7865851 0.3881651 -0.019263107 0.07120432 0.54633695 0.8853924 -0.4641968 -0.2109148 -0.30713287 -0.07703994 -0.09295424 1.2901673 0.7565069 0.38212812 -0.38305336 -0.65851897 -0.18350823 -0.3588701 -0.116644286 0.41480413 0.80426097 -0.10922338 -0.28384182 -0.86818856 -0.07980555 0.8371536 0.616521 0.2944685 -0.28490153 0.29912543 0.6324121 0.5327974 0.33879125 -0.054688398 -0.43966573 0.03674438 -0.37453803 0.37786797 -0.95859385 0.11646748 0.18849115 -0.35856867 0.09608281 0.12130166 -0.15670094 -0.54921633 0.68292403 -0.19940048 0.774357 -0.7772211 0.19584091 -0.26458454 0.42819825 -0.59330684
441 -0.25983098 0.010791516 0.54184914 0.07139205 -0.4040087 -0.12076328 -0.26221788 -0.08447676 0.06700326 -0.04972619 0.0114978785 0.5690949 -0.0448325 -0.2051069 0.10739246 0.1111552 0.08987024 -0.5958497 0.18911482 0.2483148 0.23717369 0.16841981 0.018384049 0.36201167 0.28963366 -0.15163149 0.18697202 -0.13336533 -0.23255183 0.13863987 0.09742634 0.049030546 -0.16283245 -0.23553012 -0.12009433 -0.24111742 -0.30195412 -0.093458965 0.26841056 -0.063928165 -0.021059513 -0.22006798 0.04028835 -0.24375354 0.29453808 0.0026451345 -0.21677259 0.3663981 -0.36743492 -0.16592719 -0.018135175 -0.36510456 0.19932641 -0.417855 0.08371097 -0.33658305 0.013021822 -0.15095633 -0.5187919 0.416424 0.103796765 0.09480249 -0.26446393 0.22299777 0.031960346 0.5133001 -0.03317418 -0.16065294 -0.035527892 0.062364247 -0.03234477 0.45120046 -0.08067824 0.07555712 0.31677008 0.36189607 0.1537685 -0.1907997 -0.573817 -0.2274097 0.13208023 0.012181708 0.009976717 -0.091737434 0.034933977 0.022317862 -0.23939538 0.13191728 0.45560616 -0.29043067 -0.053487424 0.096699476 0.03005044 -0.4252114 -0.11602755 0.07968237 0.030034127 -0.12937339 -0.23283401 -0.07635741 -0.11652181 -0.34574348 0.31944627 0.14778282 -0.28405082 0.31408763 -0.14977172 0.22811499 -0.07318459 0.16221702 0.11037243 -0.33173028 0.51488996 0.17936163 0.2573917 -0.023960339 0.23310697 -0.06693824 -0.15566128 0.08019361 0.17507492 -0.14160414 -0.0097470125 -0.26751843 0.012158722 0.08810893 0.039850272 0.14209628
8 -0.30331492 -0.051789902 0.51836294 0.051097903 -0.37677678 -0.14958012 -0.37276432 -0.2585954 0.35233632 -0.12839703 0.037848454 0.4769909 0.033783644 -0.23626244 0.012708843 0.01099338 0.2062096 -0.6793985 -0.012769076 0.3127962 0.28235778 0.093243636 -0.05613546 0.2535833 0.3002694 -0.3509036 0.18721199 0.18050574 -0.3739577 -0.21683379 0.16484338 -0.049572635 -0.21874465 -0.27481416 -0.18457742 -0.42824787 -0.24527644 0.13162208 0.3809089 -0.04860635 -0.117029004 0.020587578 -0.034601573 -0.443174 0.43304297 0.08291906 -0.05898768 0.35780644 -0.28623065 0.017412534 0.06193812 -0.34229937 0.26052207 -0.27133563 -0.023139505 -0.23468518 -0.043870747 -0.23506007 -0.6297818 0.23664033 0.10981749 0.1010116 -0.2985735 0.31171513 -0.15963295 0.5447723 -0.22033331 -0.17802313 0.036426723 0.10026325 0.08104636 0.39060923 -0.14346837 -0.022331333 0.11974805 0.22868273 0.17656991 -0.115909904 -0.50706494 -0.24178837 0.13371255 -0.027888572 0.04133218 -0.21451078 0.047727283 -0.18616153 0.03520893 -0.0038365026 0.20395966 -0.20007466 0.16034675 -0.006726267 0.025311368 -0.4232781 -0.12633212 0.07641776 0.10732763 -0.012771009 -0.24267302 -0.040544443 -0.20261844 -0.333298 0.15357411 0.19267221 -0.15318869 0.2765203 -0.05821551 -0.051043905 0.13182355 0.3434927 0.24790613 -0.42878237 0.44578952 0.19007818 0.2542349 0.13551496 -0.001471231 -0.15732019 0.036168467 0.11345229 0.15323733 -0.102557145 -0.13991305 -0.05526112 -0.07371726 0.19081315 0.04120451 0.20339617
430 -0.17888837 0.1059504 0.07460857 -0.27721995 -0.097996354 -0.21395041 -0.048437692 -0.10772514 0.15507181 -0.20237781 0.14902592 0.17643057 0.09371348 -0.044885445 0.15361406 0.082915634 -0.018240185 -0.2970476 -0.059812944 0.118125476 0.14857723 0.09731686 0.019283004 0.31902644 0.0040646256 -0.15135825 0.064647056 -0.28260246 -0.15812585 0.08805013 0.13119751 0.16149536 0.05583033 0.101758584 -0.13673785 -0.049334545 -0.07464084 -0.10033942 0.110049844 0.020586176 -0.0645985 -0.09535414 0.12508117 -0.33420938 0.17062084 0.16073914 -0.23940136 0.10335295 0.0012765814 0.1020209 0.026616963 -0.23286898 0.041239284 -0.017765692 0.035749014 -0.23365879 -0.10807155 0.0017914072 -0.06788106 0.22699939 -0.0760815 -0.0028135348 -0.16476806 0.111146465 -0.049400695 -0.042254433 0.21293396 -0.2842429 0.117330946 -0.04033643 -0.07906469 0.27934223 -0.08118607 0.01868203 0.08947799 0.08432456 0.09286243 -0.18622726 -0.13658841 -0.19403476 -0.08098273 0.06506155 0.018875618 -0.14497145 0.14145657 0.00021356893 -0.032037277 -0.013842556 0.21473692 0.16015896 -0.0064718924 0.047470838 0.03082208 -0.29273334 0.23593502 0.02153469 -0.14389527 -0.12925337 0.016419219 0.110442206 -0.2438359 -0.124427006 0.044698887 0.16366944 -0.00061341154 0.23482594 0.13466384 0.016788056 -0.056802083 0.21778822 -0.033632692 -0.20944943 0.16229045 0.21597068 0.13765176 0.28248513 0.21885258 -0.10899644 0.00071757514 0.12005109 0.14211132 -0.2577788 -0.13594598 -0.24889687 0.13817678 0.09320594 0.031393237 -0.1645719
452 -0.23236804 0.13659762 0.27634633 0.06229467 -0.29330614 -0.27698103 -0.21883315 -0.10074098 0.26022926 -0.28928512 0.019880865 0.52115595 0.1463762 -0.21730514 0.17010625 0.15886654 0.095455706 -0.53259534 0.078982875 0.2089384 0.26684016 0.17957477 -0.092784 0.40079775 0.33729503 -0.25834587 0.12235678 -0.094037004 -0.2955764 0.109392084 0.17570361 -0.021033619 -0.17618483 -0.048761196 0.01074255 -0.18972996 -0.21556585 -0.11352206 0.3543799 -0.050869025 -0.06478274 -0.16723718 0.08646492 -0.34745306 0.23094831 0.16135836 -0.1605383 0.4694955 -0.24080686 -0.012764486 0.036898024 -0.34273186 0.19318484 -0.24287492 0.055662934 -0.32403043 -0.03582558 -0.02333025 -0.53441375 0.36402303 0.10984367 0.073537596 -0.20016448 0.418297 -0.1289423 0.395751 0.04456438 -0.32536432 0.003647599 0.090099566 0.02435805 0.37071285 0.021612957 0.042579368 0.3432296 0.48114008 0.21448958 -0.17556404 -0.5211418 -0.232655 -0.025140358 0.0119638825 0.012954313 -0.1117461 -0.014533367 -0.07050191 -0.17254098 0.02319728 0.22445165 -0.080076136 -0.0124423755 0.11587377 0.059066433 -0.3551625 0.017431885 0.095550835 0.02394855 -0.050609995 -0.034748442 -0.018282583 -0.29035679 -0.32007474 0.26457882 0.2908787 -0.26902968 0.41565162 -0.098979436 0.0055458886 0.009679062 0.24138153 0.0339875 -0.3665971 0.23320676 0.2363148 0.15762 0.14346297 0.24873103 -0.003869062 0.0018226773 0.18153338 0.27930737 -0.20622987 -0.078854695 -0.21546206 0.05634317 0.13027444 0.053783942 0.047827117
421 -0.11563657 0.865119 -0.08136858 -0.006389486 -0.3196083 -0.11173155 0.08055718 0.06497471 0.3257333 -0.4505434 -0.382848 0.40648893 -0.13652524 0.28597632 0.40002072 -0.029526405 -0.12259398 -0.43421158 0.33673036 -0.026803091 -0.123191334 0.47006273 -0.21292199 0.71168834 0.23804331 -0.116946995 0.1453548 -0.12897123 -0.21423729 0.39407694 0.21716698 -0.05904562 0.01840843 0.07113239 0.2528174 0.21027382 0.07147087 -0.5099823 0.75974244 -0.031347886 -0.3291537 -0.2295076 -0.068765394 -0.5799996 0.2453132 0.50144416 -0.0020691645 0.42024523 -0.16736783 -0.039815426 0.1453801 -0.5907121 0.09807364 0.049497295 0.19351216 -0.55345297 0.1015778 -0.22590679 -0.38275805 0.4790181 0.09655792 -0.11528037 -0.21413259 0.65646464 -0.43687034 0.3781807 0.4541404 -0.31326795 0.00572099 0.6556766 -0.10707586 0.76333845 -0.11020834 -0.03021436 0.63873804 0.4147897 -0.16068524 0.05750026 -0.29288295 -0.25914475 -0.13014922 0.25257266 0.06754813 0.05837908 0.25811556 -0.41314363 -0.6098251 -0.10238443 0.24354364 -0.09051821 -0.27783498 0.21127164 0.36319742 -0.7896409 -0.04697655 -0.052766293 -0.33923444 0.24759732 0.030289821 -0.24583499 -0.41458082 -0.76940763 0.2897975 0.35438251 -0.61602813 0.40898168 -0.25749275 -0.36803252 -0.08264533 0.54390174 -0.4321177 -0.08731052 0.15486184 0.6406942 0.30086753 0.63525915 0.45342198 0.09969263 0.20822668 0.5982459 0.3126046 -0.31071216 -0.2215041 -0.38861918 0.4509564 0.042682093 0.11232281 -0.4283455
700 -0.19476318 0.022157628 0.62360495 0.45136008 -0.5453893 -0.014756151 -0.39985785 -0.00018380782 0.12828842 -0.04984664 -0.07113546 0.49349558 -0.045866713 -0.296714 0.04825722 0.07886403 0.21099693 -0.5355081 0.26364988 0.21581173 0.33744478 0.27223364 -0.085344076 0.08407531 0.37942037 -0.1420127 0.030193537 0.3166227 -0.39417252 -0.064222984 0.03981805 -0.18157026 -0.17736243 -0.39191186 -0.044670995 -0.44365185 -0.28195283 0.036540672 0.383924 -0.16065894 0.033340782 0.006573901 -0.13427457 -0.12519595 0.2673738 0.0005091804 0.10844246 0.5208106 -0.48972437 -0.1497429 0.06551947 -0.18369871 0.4273825 -0.5443721 -0.116778836 -0.1934977 0.12320943 -0.16547419 -0.77996933 0.31603283 0.2849839 0.28064424 -0.30684924 0.20573603 -0.00479116 0.8162349 -0.30874988 -0.029643344 -0.16647086 0.21917899 0.16231589 0.27761433 0.0837819 -0.02868765 0.2659067 0.60433465 0.20976272 0.018789968 -0.7651235 -0.055861283 0.22931246 -0.19275194 -0.07549923 -0.150213 -0.10689329 0.014768858 -0.07320369 -0.02113436 0.16709077 -0.46508375 0.14996965 0.08162863 0.03555096 -0.22297806 -0.3981308 0.048302725 0.1541967 -0.04049408 -0.34019965 -0.12791233 -0.1286855 -0.4236498 0.20903678 0.2628124 -0.28764907 0.39812616 -0.30444172 0.0104693975 0.026276618 0.17777222 0.28520927 -0.48144335 0.1967674 0.036170963 0.31343374 -0.22660275 -0.098050274 0.05682826 -0.010093584 -0.058456864 0.3267002 0.10550332 0.17039801 0.0024695632 -0.20376106 0.028324438 0.11369403 0.3620834
707 -0.2742343 -0.056492094 0.5323236 0.23674385 -0.20064616 -0.16444255 -0.2741611 -0.07088148 0.096997626 -0.08741559 -0.050487623 0.6114136 0.0542459 -0.27514756 0.076752305 0.15233012 0.07176703 -0.48123056 0.22210781 0.18677384 0.36534712 0.06465548 -0.15319814 0.28122136 0.38974628 -0.19078398 -0.02404318 0.1235613 -0.1829738 0.11382244 -0.08151359 -0.18639313 -0.29484484 -0.30799735 0.111909404 -0.21023116 -0.37687862 -0.083233245 0.2359501 -0.067948915 -0.00010660068 -0.081345044 -0.006700451 -0.118246585 0.241526 -0.07374316 -0.14137293 0.5321936 -0.3129922 -0.17702581 -0.07049759 -0.27323532 0.21237104 -0.32345545 -0.09544112 -0.24926338 -0.088884875 -0.0498663 -0.6595033 0.26185226 0.23133937 0.12498362 -0.19232227 0.35463166 0.01574499 0.6681442 -0.12685402 -0.113092095 -0.03558678 0.12672134 0.10496448 0.16420138 0.15952735 -0.01666419 0.30821902 0.5249556 0.15967403 -0.07742189 -0.6432782 -0.1411769 0.2134552 -0.031405352 -0.02633977 0.03906958 -0.15306176 -0.08594368 -0.18041787 0.03594411 0.24137022 -0.20454383 -0.040755656 0.17816399 -0.060663525 -0.21585856 -0.26746044 0.06907511 0.09327962 0.07424774 -0.12372344 -0.14890252 -0.1024732 -0.3079828 0.37781098 0.16974582 -0.31004715 0.3214745 -0.18169492 0.20404297 -0.047772575 0.1336851 0.21407858 -0.38702124 0.3287695 0.012835065 0.13199565 -0.19328576 0.04875745 0.04306663 -0.1271799 0.008311936 0.22017837 0.012334899 0.06689968 -0.08062328 -0.120583035 0.03125695 -0.018137326 0.27946183
9 -0.2835002 0.2779386 0.6365851 -0.10688834 -0.5603188 -0.16511333 -0.16735533 -0.24373943 0.28847766 -0.1806017 -0.03685955 0.64712614 -0.10003111 -0.05185402 0.2693431 0.06505786 0.07506045 -0.72472084 0.25404808 0.20378685 0.2796506 0.29011956 0.080952406 0.5205081 0.23850147 -0.24980862 0.12007865 -0.1637964 -0.26165232 0.07948103 0.22875701 0.14149211 -0.2076554 -0.28756332 -0.12208571 -0.32679376 -0.23754106 -0.051740125 0.48349616 -0.12077561 -0.28770718 -0.1354277 -0.0948699 -0.48979795 0.44498464 0.24674995 -0.24517153 0.39936334 -0.32399344 -0.03024174 0.039774876 -0.4435905 0.29387337 -0.25569904 0.0656316 -0.43047714 0.027135838 -0.22212489 -0.60357493 0.38270056 0.09218958 0.09797181 -0.34135467 0.29827106 -0.078017786 0.56073517 0.10434939 -0.2780692 0.014760863 0.19981289 -0.0968812 0.6391555 -0.16882594 -0.0200347 0.3710434 0.36412773 0.07648408 -0.13162965 -0.5122024 -0.35445827 0.10593144 0.058978606 -0.0056381873 -0.083412446 0.0071643656 -0.09516815 -0.18820496 0.08174245 0.46503782 -0.23177813 -0.12101577 0.059373155 0.12093743 -0.6392971 -0.02619651 0.021621512 -0.067366734 -0.02716807 -0.24781714 -0.07967185 -0.20183621 -0.5708961 0.30483514 0.27191776 -0.32474443 0.44154498 -0.101354666 0.00035961418 -0.03408227 0.4330862 0.00127272 -0.2962621 0.53423464 0.41643232 0.4297414 0.3042052 0.20834309 -0.14447571 -0.00784144 0.23719677 0.20022291 -0.2270579 -0.17813107 -0.37702513 0.12808044 0.19433676 0.056363855 -0.017688833
14 0.30671978 -0.09916941 -0.34284452 0.3176293 0.36531764 -0.21860035 0.17170018 0.21983866 -0.061635897 -0.42703778 0.048079878 0.10956132 0.6156758 -0.3863585 -0.12780797 0.3546976 -0.09864631 0.5737962 0.021291956 -0.28608772 -0.095458455 -0.02667127 -0.5270148 -0.015466322 0.18962789 0.013735943 -0.19371738 -0.08832249 0.07513081 0.5064855 -0.048125446 -0.2724147 0.23159881 0.4749622 0.35899556 0.66395694 -0.11088349 -0.19491626 0.16718215 -0.27075928 0.0813616 -0.24949104 0.093247026 0.41935408 -0.20340216 -0.053408723 -0.05224255 0.17133139 -0.22383912 0.043951508 0.05375155 0.08575018 -0.0012342785 0.001926719 0.10749246 0.13322553 -0.120734386 0.61272943 -0.004201762 -0.15510674 0.13456868 -0.30508384 0.38323572 -0.00414066 0.028764386 -0.27107853 0.149617 -0.33683354 -0.16110402 -0.0051780315 0.24837868 -0.26266938 0.3429361 0.124818355 -0.06929078 0.6861064 0.26761013 -0.07531236 0.19522697 0.37898168 -0.08873504 0.10881518 0.05861611 0.2554178 -0.021778977 0.27963102 -0.23387562 0.2245491 -0.24421932 0.10458839 0.2616625 0.28509873 0.05138532 0.6150815 0.2536205 0.036491167 -0.09966952 -0.13987349 0.43100053 -0.0039703017 0.082439564 0.44339332 -0.21806239 0.07378745 -0.07221338 0.1818342 0.05044035 -0.008925664 -0.17565772 -0.42451286 -0.3300978 -0.17013837 -0.32286566 -0.4209926 -0.22039951 -0.10441833 0.060238205 0.1421225 -0.2312948 -0.13654397 0.5325432 -0.05874221 0.40158775 0.25612873 -0.09379697 -0.42174628 0.15176934 -0.42203262
172 -0.15615775 0.30024227 -0.4111986 0.0032017399 0.6188275 -0.41413593 0.38073877 0.26786587 -0.004056419 -0.6004018 -0.086041786 -0.06757911 0.21244465 -0.025352113 -0.15635896 0.108416535 -0.58535975 0.42563048 -0.022079905 0.05856877 0.03913801 -0.043964457 -0.34425622 0.0854564 0.28635028 0.18311217 -0.2843339 0.036895994 0.09290283 0.29938826 -0.28068715 -0.6524488 -0.097666994 0.3399235 0.6035797 0.547963 -0.0564258 -0.5011987 0.023512434 0.06351088 0.032903753 -0.13631375 0.24744277 0.20360808 -0.2223183 0.1129582 0.21046133 0.29061842 0.38343942 0.33904612 -0.19406098 -0.101669416 -0.28988126 0.36055383 0.13372624 -0.11824851 -0.32295787 0.12025762 -0.13365155 0.08804102 -0.079718746 -0.40716574 0.21662419 0.5793905 -0.18063636 -0.1285166 0.5142917 -0.3419706 0.2817987 0.28105587 0.47136763 -0.1541551 0.302448 0.041994855 0.030676106 0.28891325 -0.17542969 -0.052643407 0.0049712895 0.52486604 0.143741 0.22893953 -0.24465713 0.3799488 -0.13761623 -0.39057738 -0.184693 0.045329086 -0.62404096 0.25928155 0.21950105 0.17824669 -0.04375763 0.13947946 0.072811924 -0.019341791 -0.52970624 0.3235892 0.4260916 -0.09296458 -0.08191684 0.03172887 -0.19828759 0.14863133 -0.35579765 0.18709244 0.36168453 -0.12701988 0.12674172 -0.0062768944 -0.04879729 -0.19862308 -0.298528 -0.24373 -0.29218993 0.15429159 0.11330176 0.341181 -0.11148076 0.0077693104 0.4231463 -0.09224469 0.17764771 0.54978275 0.33670673 -0.3210241 -0.16205236 -0.2513218
515 0.31651565 -0.14166959 0.5870597 -0.08955455 0.38820925 0.06441141 0.39943448 -0.04277288 -0.71933794 0.3232184 -0.30059785 0.1513914 -0.23127809 0.17741926 -0.20786448 0.045226943 -0.4309316 0.48830223 0.5116757 -0.14158759 -0.15271947 -0.25436318 -0.23984143 0.058379386 -0.12066702 0.360797 -0.2788198 -0.29043585 0.75823975 0.43533394 -0.45670775 -0.07354504 -0.17785664 -0.27755815 0.3641314 0.677988 -0.18184929 -0.052245174 -0.18389583 0.017093575 -0.15086834 -0.4325945 -0.16574068 0.69970566 0.3694511 -0.667852 -0.5409394 -0.32106692 -0.19088213 0.024044294 -0.7237315 -0.06409826 -0.23264743 0.221973 0.40242773 0.0643986 -0.38109702 -0.16178383 0.273078 -0.038369536 -0.060266044 -0.44528216 0.21281295 -0.036546595 0.27004552 -0.14124858 0.33484572 0.031528734 0.07383955 0.19534592 0.13241187 -0.24010469 -0.048651606 0.008416224 -0.00012458923 -0.049581144 -0.67341083 0.19968653 0.30290383 0.5754581 0.45825624 0.26087508 -0.2712071 0.690917 -0.15462218 -0.02946062 -0.24383962 0.67979056 0.015895553 -0.18073551 -0.3205762 0.121979885 -0.2343678 0.016126214 -0.1936108 -0.12006315 -0.33387017 0.38392496 -0.089554355 -0.20822418 0.8227989 0.056372147 0.20881891 -0.4955516 -0.18707111 -0.15784341 0.10459357 0.44768098 -0.16399758 -0.18803471 0.0365987 0.27753544 0.62622607 -0.27322832 -0.14813702 -0.31245717 0.122495495 0.16674528 -0.8173588 -0.115420766 -0.22974397 0.058141053 0.40945294 -0.111290775 0.20402457 -0.41677436 -0.38726118 -0.07837438
406 -0.045930587 -0.060403313 0.19787292 0.17432617 -0.56443024 0.12743081 -0.36823866 -0.51739895 0.68186814 0.066473484 -0.15467408 -0.02937381 0.24349228 -0.03069232 -0.15647699 -0.3850347 0.48041564 -0.32283598 -0.21872048 0.05398835 -0.24021176 0.29197007 -0.24875614 -0.09532021 -0.19018628 -0.31040817 0.46515 0.24872339 -0.4913247 -0.4347365 0.6115287 0.2878286 0.15384917 0.28933534 -0.504136 -0.21901827 0.28379554 0.34168196 0.78375196 -0.16313942 -0.35305697 0.13831648 -0.43672106 -0.66247857 0.48125705 0.12341226 0.43368095 -0.23252456 -0.4594707 -0.1256723 0.43610957 -0.40131888 0.34500548 -0.1952094 0.2928589 0.005578694 0.2675506 -0.13943543 -0.08467671 -0.14675763 -0.02031053 -0.048002083 -0.045011457 -0.08418315 -0.55282915 -0.068716146 -0.56128585 -0.12995145 -0.082785495 0.18012787 -0.1102382 0.48501503 -0.65049964 -0.21990138 -0.220002 -0.2595972 0.07654562 0.09936083 0.26257384 -0.09978601 -0.112150006 0.039255947 0.29599664 -0.41004598 0.5159804 -0.11102696 0.029383015 0.076402314 0.14271101 -0.27596498 0.32642424 -0.1616797 0.127631 -0.27679983 0.11647028 0.0034376846 0.3374014 -0.004976293 -0.34156638 0.061143007 -0.19445679 0.0017529877 -0.24299681 -0.14252102 0.12582728 0.030504473 -0.08595257 -0.5156139 0.083125725 0.3109588 -0.13813867 -0.28682715 0.68897134 0.123509295 0.5739023 0.66629815 0.049388085 -0.49283502 0.32247937 0.39350522 -0.0904293 -0.16923131 -0.21106741 0.077250466 -0.010930094 0.14356543 0.30826375 -0.3504101
264 -0.08327962 -0.25202158 0.48010108 0.30419278 -0.30200922 -0.19875348 -0.35372186 -0.10631087 0.08572429 -0.09079733 0.10152947 0.55285937 0.23782341 -0.43353975 0.020819036 0.25831133 0.2576638 -0.36694375 0.07085495 0.17246182 0.28444752 0.01126883 -0.15663312 0.15133516 0.36774054 -0.3032481 0.039936516 0.067823134 -0.2121098 0.031355187 0.08899099 -0.044245627 -0.21176733 -0.18542954 0.00480491 -0.21471445 -0.28815395 0.1117359 0.13626641 -0.14458434 0.08519565 -0.11553168 0.030558228 0.008345161 0.21845391 -0.1650288 -0.2260824 0.41261882 -0.43742296 -0.12268506 0.018315252 -0.13006857 0.2687638 -0.4015618 -0.03769714 -0.08137103 -0.06557593 0.14990686 -0.5278367 0.13240913 0.25267607 0.18435167 -0.1296862 0.13565889 0.049261414 0.4817259 -0.29018012 -0.177034 -0.13808373 -0.10804267 0.06370602 0.0537578 0.18033734 0.0463174 0.17598112 0.57024866 0.33595878 -0.13928227 -0.53327453 -0.1556206 0.099113904 -0.14378163 0.050564166 -0.06413561 -0.17623092 0.18888336 -0.040920693 0.084092274 0.24040267 -0.23180234 0.04507717 0.11328991 -0.05725327 0.026847685 -0.14177524 0.11568061 0.2682666 -0.11821635 -0.08454087 -0.0049978574 -0.0109465 -0.05068815 0.2802804 0.15667228 -0.14297956 0.30338982 -0.17696825 0.15924646 -0.038249847 -0.060709547 0.20057328 -0.32882652 0.23249176 -0.06504922 0.07637912 -0.28008124 0.014334749 0.035849877 -0.14324376 -0.08718821 0.23474488 0.0022521242 0.11502796 -0.16767323 -0.29176813 0.042309824 0.10810666 0.28845757
65 0.073896125 0.011644092 0.12971029 -0.108387694 0.41532403 -0.23635134 0.26670113 -0.07590661 -0.093611285 0.020162156 0.030139888 -0.10785279 -0.047115758 0.071633324 -0.10225325 0.041548997 -0.2632657 0.350163 -0.09265612 0.13930874 0.09094462 -0.33321527 -0.047965314 -0.24172412 0.08295495 0.07565157 -0.2024093 0.23120773 0.27711624 -0.13094328 -0.25986004 -0.34593847 -0.19687667 -0.26404175 0.18698056 0.053519677 -0.09681295 0.27215734 -0.027230727 -0.027185194 -0.204446 0.0436624 0.025552753 0.20966323 0.21730901 -0.034507144 0.03983216 -0.09841916 0.19540314 0.5849968 -0.38000762 0.09799423 -0.1610912 0.3522978 0.06020709 0.28268766 -0.40265018 -0.25748008 -0.1153148 -0.27912962 -0.21178862 -0.29262912 0.2215535 0.23349951 -0.13683 -0.1956657 0.27815604 -0.16916505 0.3640955 0.16845395 0.44156533 -0.17854846 -0.12510787 -0.010735555 -0.2351206 -0.087396085 -0.3451552 -0.009948673 0.20514415 0.5162988 0.18471354 0.16608396 -0.20160018 0.4032907 -0.16536038 -0.22794335 0.30722466 0.3437514 -0.7411365 0.036789145 0.33921555 -0.12996651 -0.14541371 0.09447757 0.028141841 -0.06562161 -0.2947216 0.36019284 0.11120502 -0.017568994 0.1988294 0.054470856 -0.275775 -0.094091274 -0.014393233 -0.09503949 0.34697473 -0.16165727 0.45645455 0.069845974 0.2981925 -0.09065319 0.023652151 -0.2923049 -0.177009 0.06989685 -0.1117663 0.0026219613 -0.36577734 -0.077867016 0.061632916 0.03692189 0.07912484 0.51238257 0.3815959 -0.13740839 -0.35816732 -0.16277872
699 -0.14820461 0.10965833 0.24529476 0.392375 -0.68619555 0.14674163 -0.2837914 -0.11948317 0.2658668 -0.01321932 -0.28345883 0.049230635 0.02949405 -0.00974998 -0.15458131 -0.32035372 0.19895333 -0.24112782 0.15196553 0.07646898 -0.28315383 0.5731882 -0.23306462 0.028554413 -0.08373913 0.070643544 0.4344532 0.0007267694 -0.5438047 -0.0060425494 0.45811504 0.21636422 0.2593141 0.3021825 -0.39618382 -0.05207025 0.09119464 -0.10438944 0.76909304 -0.1851127 -0.116485305 -0.14562395 -0.31365633 -0.38729882 0.25300825 0.0276965 0.5548326 0.0038134228 -0.6229719 -0.40601814 0.36320892 -0.45590934 0.33031097 -0.56755537 0.35994396 -0.18044226 0.4049658 -0.15785147 -0.19147813 0.22640161 0.07621164 -0.0375048 -0.14191023 -0.12338872 -0.2684467 0.14776531 -0.39164633 -0.044365555 -0.2655493 0.29449677 -0.07429923 0.5551099 -0.46884772 -0.11310603 0.036565132 -0.016916232 0.062249787 0.10040924 -0.043123517 0.05404593 0.061493803 0.024368318 0.17031379 -0.30242214 0.5353585 0.08149019 -0.3826692 0.11196708 0.4120378 -0.54797107 0.11110126 -0.009491959 0.1723691 -0.35890758 -0.09689491 0.018426657 0.18681714 -0.16011772 -0.43890938 -0.070924304 -0.1657824 -0.14326963 -0.116306245 -0.07107607 -0.16964658 0.09062454 -0.28947863 -0.17547446 -0.22602502 0.09147918 -0.2810754 -0.24203114 0.6421495 0.14975518 0.5929017 0.34869727 0.18576722 -0.2631202 0.20362422 0.3142232 0.087334976 -0.08295627 0.05984964 0.0408687 -0.011939666 -0.09620237 0.37665632 -0.23327228
93 -0.2033025 -0.018298464 -0.17953454 0.17137924 0.5858273 -0.351682 0.28680235 0.122851476 -0.018022714 -0.43829677 -0.08571635 -0.1769497 0.26053348 -0.07067411 -0.34291834 -0.015354119 -0.54901034 0.5079513 -0.043053634 0.112926856 0.0405367 -0.11585295 -0.42724603 -0.18542126 0.17784932 0.24740069 -0.21076335 0.21613291 0.04129831 0.11008264 -0.25275263 -0.66198516 -0.07601011 0.3479467 0.3947435 0.48648432 -0.15247238 -0.35553542 0.09309434 -0.0072949957 0.022417946 -0.086066075 0.09980582 0.26307985 -0.057963505 -0.11291505 0.43646508 0.13570343 0.26146385 0.22731449 -0.18832758 -0.12909381 -0.22207287 0.2245358 0.19494203 0.038612936 -0.34999672 0.079831354 -0.14405341 -0.12144937 -0.14909036 -0.46825334 0.28865135 0.33291772 -0.1696566 -0.2654395 0.27201837 -0.24973708 0.28634387 0.23214777 0.60394347 -0.2660446 0.09886007 -0.034176987 -0.21521293 0.044502903 -0.23373576 -0.04866537 0.12721239 0.6998632 0.3308392 0.24390955 -0.20080806 0.39349115 -0.046739463 -0.3094972 -0.09436392 0.23913233 -0.6628738 0.16082153 0.3825696 0.09632317 -0.14971726 0.2705786 0.037937403 -0.03883003 -0.39081895 0.35935158 0.28875536 -0.08065569 0.07532243 0.2701332 -0.40270314 -0.117631145 -0.17559583 -0.010569997 0.4433303 -0.11147415 0.15403187 -0.14421609 0.06765172 -0.3420216 0.044290505 -0.5148187 -0.13044372 0.11687808 -0.026224818 0.16744399 -0.22143218 -0.07556631 0.25906864 0.0027015908 0.31914997 0.85515714 0.24319434 -0.42817074 -0.19242325 -0.28425363
608 0.14164908 -0.04680878 0.34931222 0.24974348 -0.4673284 -0.08827022 -0.25501758 -0.14131768 0.13678132 -0.12954386 0.053963307 0.4262405 0.2376148 -0.2589935 0.18909468 0.27889442 0.31074968 -0.1987115 0.1405577 -0.051649056 0.12469962 0.15379198 -0.16080722 0.12362713 0.03685818 -0.28665483 -0.0070366906 -0.029343922 -0.19382682 0.0662015 0.24634229 0.22211935 0.06731915 -0.082353674 -0.08070819 -0.09980552 -0.039236978 0.1573467 0.2700223 -0.2828161 -0.020867802 -0.04390911 -0.14184758 0.04095289 0.25809222 0.012039745 -0.18611264 0.15259767 -0.48274645 -0.0062104496 0.105803505 -0.024495104 0.35517886 -0.30211458 0.017039163 0.09742306 0.05122607 0.22268482 -0.26528984 0.0033593182 0.21481173 0.23844752 -0.121708885 -0.18905273 -0.015043024 0.17256251 -0.10615841 -0.18706262 -0.20505328 -0.06778467 -0.021355776 0.108471096 0.044608712 -0.048133258 0.074739955 0.55244064 0.24034114 -0.028195575 -0.25704727 -0.13677163 -0.11486479 -0.12318726 0.11530192 -0.07351372 -0.024672855 0.35147887 0.035230182 0.071306765 0.1978962 -0.2180762 0.048213024 0.053686835 0.07733012 0.037469324 0.09764611 0.022720696 0.21164301 -0.14172512 -0.056328226 0.072701626 0.026282841 -0.07210015 0.11145096 0.14335546 -0.011417951 0.30158684 -0.1532974 -0.12420599 -0.047877062 -0.014494668 -0.05068637 -0.19186331 0.051669713 -0.007950134 0.2441069 -0.035597596 0.0066488977 -0.021924298 -0.067704365 -0.05216997 0.23698306 -0.0642526 0.14306769 -0.32408506 -0.1194743 0.030831328 0.22121766 -0.062436774
275 0.27109486 -0.0031892918 0.52220154 -0.23892435 0.8060534 -0.045587167 0.5215797 -0.47980106 -0.35711694 0.635135 -0.47243446 0.33652115 -0.075283214 0.39432725 0.025565721 -0.16021025 -0.28079456 0.28896224 0.29992306 -0.19380374 -0.05254689 -0.582775 -0.01867016 0.26675856 0.1440257 0.27213886 -0.09592143 -0.13839142 0.96908426 0.38093555 -0.5327328 -0.037479464 -0.5664467 -0.4061384 0.45594648 0.5305751 -0.2510985 0.19700928 0.11548633 0.16063826 -0.51199555 -0.29415655 -0.2132524 0.23032683 0.49182168 -0.45848513 -0.70221514 -0.19246939 0.06834632 0.024507198 -0.73831826 -0.46717808 -0.44950086 0.6046952 0.2403614 -0.06140383 -0.59251916 -0.3145445 0.09177098 -0.2864224 -0.37727985 -0.7061617 0.45307475 0.56444865 -0.16708796 -0.1156953 0.3107949 -0.19066365 0.41355142 0.39423582 0.04566361 -0.13836886 -0.39341584 0.021105977 0.24622872 -0.18787818 -0.7823717 0.15531147 0.5133117 0.23420128 0.39848775 0.47170419 -0.103498936 0.939925 -0.32566476 -0.34886742 -0.3329912 0.85981727 -0.05819331 0.19221734 -0.3461258 0.1636189 -0.2466373 -0.22225712 -0.1757878 -0.032021746 -0.23758975 0.80022925 0.055812005 -0.3607941 0.6388799 -0.031799227 0.43934184 -0.61065036 -0.29585057 -0.27967626 0.15183014 0.48649547 0.22715028 0.07495959 0.13918456 0.14061372 1.0969441 -0.12346673 -0.22226202 0.09282764 0.36989862 -0.2515202 -0.89607644 0.2661541 -0.46611908 0.0065385494 -0.10391523 0.018514015 0.6144064 -0.16706936 -0.6745768 -0.2990951
360 -0.31822613 0.22799262 0.64307976 -0.28646046 -0.3588793 -0.2215235 -0.11096204 -0.09203513 0.030542081 -0.047227554 0.08151592 0.4767207 -0.29249465 -0.08685797 0.2214922 0.120740525 -0.104434125 -0.6600467 0.17732824 0.34301504 0.44434005 0.13476518 0.2581833 0.37558123 0.21599165 -0.123539224 -0.042911567 -0.21751481 -0.10704495 -0.031710528 -0.07209186 0.015095015 -0.3265151 -0.4328228 -0.082238115 -0.42654052 -0.3053164 -0.03762954 0.008431287 0.09114372 -0.08534656 -0.13179122 0.096564054 -0.2339213 0.30865663 0.10540423 -0.3822377 0.33270007 -0.047614988 0.18569577 -0.29177275 -0.21000133 0.14334354 -0.19189286 -0.0031959435 -0.34216034 -0.0819481 -0.39484134 -0.4935253 0.5296963 -0.0057859602 0.17958626 -0.43975377 0.33270997 0.12973227 0.5659371 0.23092249 -0.21717764 0.15792878 0.06643643 0.028707232 0.40172854 -0.014694629 0.046234716 0.33682624 0.25490963 -0.047452398 -0.1634289 -0.6609224 -0.1915937 0.19722472 -0.013007249 -0.24815364 -0.06489189 -0.16814306 -0.14826095 0.04351057 0.07520105 0.25051448 -0.14690587 -0.134989 -0.013125232 -0.045165244 -0.5856551 -0.086154684 0.0048435344 -0.1951146 -0.0013102794 -0.26197496 -0.00037109098 -0.09677189 -0.5677213 0.35492262 0.27002177 -0.25013953 0.43977788 0.05418458 0.23449664 0.07603275 0.40964758 0.3391652 -0.27082023 0.34704265 0.2995519 0.18649423 -0.009295171 0.14421172 0.070370644 -0.18367907 -0.03520995 0.113265775 -0.13619682 -0.06649592 -0.3193413 0.1990657 0.24360971 -0.17707139 0.28410593
359 -0.14137149 0.33724058 0.46290973 0.05583624 -0.55550736 -0.19887543 -0.20994075 -0.124542005 0.30691573 -0.26290202 -0.06862928 0.56012386 -0.0055065015 -0.17041886 0.21904367 0.13709615 0.11289147 -0.55965054 0.20062882 0.14216083 0.23324914 0.3240753 -0.09326269 0.39421007 0.26821887 -0.27906504 0.02661615 -0.041802745 -0.3182532 0.05608818 0.21359695 0.021712203 -0.1441769 -0.20117933 -0.010702765 -0.25832337 -0.17072643 -0.0041816034 0.4956877 -0.15514016 -0.22654273 -0.09646388 -0.08884652 -0.35133833 0.3630475 0.24871525 -0.15942702 0.42216703 -0.35950014 0.08239988 0.035677154 -0.2936525 0.35004368 -0.24985199 0.066869676 -0.27441162 0.08814112 -0.14808293 -0.59920424 0.34830496 0.19113708 0.14180748 -0.3326812 0.3262039 -0.14482556 0.5817949 0.041222297 -0.30381685 -0.07029651 0.25039175 0.011022433 0.4963845 -0.009110469 -0.018746179 0.35281396 0.5481699 0.13994326 -0.05024328 -0.5132603 -0.21998623 0.053163398 -0.0063785003 -0.0047548776 -0.0949133 -0.0023726441 -0.08393505 -0.13338089 0.0015817209 0.25540355 -0.2705837 -0.04541016 0.073531635 0.16617936 -0.46201223 -0.051977754 -0.00323033 -0.039748352 -0.0030122 -0.16189225 -0.05042691 -0.21232094 -0.5150095 0.25727907 0.36515918 -0.311837 0.53505546 -0.16896203 -0.14964528 -0.02138948 0.3976114 0.022725778 -0.30127862 0.26539198 0.3378601 0.34835964 0.22966214 0.12366654 -0.0023083822 0.05362075 0.1695078 0.35613737 -0.17799562 -0.039688397 -0.30287918 0.06147996 0.16206042 0.14229898 -0.014536735
292 0.30392736 -0.028856132 0.16466022 0.2791392 0.23250407 -0.005378724 0.25186512 0.27695152 -0.6154652 -0.0991733 -0.23657793 -0.0114092 0.1166196 -0.05479885 -0.1794036 0.16607805 -0.31700197 0.5981514 0.5634866 -0.28148568 -0.08860915 0.14895724 -0.5202191 -0.058066912 -0.25499785 0.45314056 -0.38260233 -0.29892942 0.33008313 0.6272075 -0.28038856 -0.09426695 0.20602609 0.21558678 0.38823274 0.8039327 -0.050414022 -0.4168349 -0.054425906 -0.12797388 0.17181537 -0.37958428 -0.14239757 0.7856793 -0.016471067 -0.47523615 -0.14115879 -0.06356889 -0.31254497 -0.14935932 -0.4105277 0.08012627 0.0110188015 -0.1166878 0.313099 0.03558649 -0.12941943 0.27661896 0.30037943 0.15203835 0.18249884 -0.22324693 0.18121569 -0.20835315 0.33229378 -0.2869369 0.26724827 -0.02306926 -0.20415196 0.16010492 0.15821098 -0.36706877 0.2999466 -0.07067083 0.033709574 0.4184655 -0.32877442 0.22235519 0.07514621 0.72009015 0.20574053 0.08269977 -0.26900205 0.39996576 0.035764545 0.27034357 -0.37236044 0.33338553 -0.07002671 -0.15352188 -0.15725291 0.2772071 -0.1629169 0.32040584 -0.044695735 -0.0850542 -0.27679178 0.07844975 0.033562493 -0.07408384 0.45058477 0.1645203 0.018006014 -0.2431829 -0.14606519 0.11317401 -0.0436119 0.29213998 -0.40774155 -0.35087088 -0.20298229 0.07035709 -0.008743683 -0.4436336 -0.062021825 -0.38609347 0.13913183 0.35431844 -0.505569 -0.2421341 0.21021147 0.08128805 0.6992694 -0.047933213 0.07389205 -0.5771232 -0.042994384 -0.19837019
161 -0.3423843 0.14994358 0.47460693 -0.22707273 -0.40000248 -0.25595298 -0.13851885 -0.09682162 0.087637685 -0.18379697 0.12370085 0.42957616 -0.13225478 -0.120854005 0.18900117 0.15244313 -0.06275307 -0.59928423 0.11517288 0.28798848 0.3891412 0.20820677 0.16511282 0.3679191 0.08999717 -0.14496791 -0.0025046023 -0.30311853 -0.19568816 -0.0014334824 0.06003285 0.14180985 -0.16269839 -0.21405219 -0.08508155 -0.30298838 -0.19110577 -0.09334785 0.021364957 0.014229033 0.022887783 -0.09360041 0.10805428 -0.22962822 0.2170099 0.123543665 -0.33030906 0.3089857 -0.06053707 0.1043699 -0.15884371 -0.16452834 0.16550353 -0.21406057 0.0030130732 -0.28099868 -0.04523186 -0.18417324 -0.34434292 0.4785539 0.05650143 0.20914792 -0.41746593 0.17928043 0.103703566 0.3695685 0.1887366 -0.21555749 0.07915729 -0.037167203 -0.02780172 0.34391913 0.027146827 0.020144422 0.21241224 0.25675502 0.074059285 -0.1587523 -0.56607676 -0.22997452 0.06380736 -0.059043147 -0.13093361 -0.17559357 -0.082796216 -0.011841046 0.038848627 -0.04955553 0.30368865 -0.07520966 -0.13192354 0.016970042 -0.037743803 -0.46821806 0.036409292 0.04588877 -0.11156814 -0.13206889 -0.17037253 0.08127809 -0.1714595 -0.4178079 0.29828495 0.27802923 -0.1490917 0.44122612 0.06442935 0.15503034 -0.035950895 0.34819895 0.17017245 -0.252458 0.20805223 0.28867364 0.21617231 0.05392817 0.16436496 0.034851506 -0.04509529 -0.007599173 0.15079594 -0.20977269 -0.064810306 -0.37838224 0.109908804 0.20854467 -0.025632711 0.18326919
249 -0.2094457 -0.098257765 -0.01741466 -0.2088679 0.051165134 -0.22355337 0.019306576 -0.009703261 0.019944303 -0.06628866 0.15915446 0.102092534 0.08872055 -0.15306102 -0.07268805 0.05786368 -0.09803855 -0.15782523 -0.14566433 0.17968951 0.077553004 0.026574384 0.05951193 0.19187535 0.09013865 -0.008164057 0.18680203 -0.39069033 -0.065224655 0.13532919 0.07186451 0.09027833 -0.026524566 0.20823033 -0.10859689 0.033461027 -0.14828554 -0.11734182 -0.048473705 0.06402521 0.049655516 -0.24585417 0.24017656 -0.173815 -0.03821554 0.0043113837 -0.1819012 0.08841345 0.004764289 -0.035894655 -0.045477588 -0.18325754 -0.108126014 -0.116389416 0.15779324 -0.19692647 -0.082417116 -0.0035015051 0.008565694 0.25893664 -0.06364627 -0.1514266 -0.01879129 0.17148794 0.05257716 -0.1092584 0.07635663 -0.23184848 0.099864416 -0.14801411 -0.041025814 0.21134926 -0.09220081 0.17082544 0.022368353 -0.04430638 0.14843892 -0.262993 -0.046399854 -0.056310844 -0.008931038 0.092505775 0.016195811 -0.07416658 0.100695394 0.054343637 -0.14374992 0.13421711 0.23212565 0.042074293 -0.010158756 0.011495854 -0.0634555 -0.1459332 0.17988274 0.11717715 -0.0621805 -0.23988716 0.015735295 0.09113156 -0.13290568 0.08195066 0.08239253 -0.004523848 -0.02501747 0.113505825 0.14730398 0.30266032 -0.0927605 0.0034700043 -0.045682233 -0.09228497 0.28626147 0.085125044 -0.03897553 0.06333739 0.32175833 -0.1226463 -0.12182816 0.062135108 0.053931333 -0.2139639 -0.09846948 -0.07188356 0.0744319 0.038948584 -0.029545091 -0.04549226
496 -0.06701798 1.00322 -0.014190473 -0.059295293 -0.35727483 0.011927737 0.24517605 0.2545409 0.05926703 -0.37538537 -0.40104404 0.34810117 -0.3629367 0.36482757 0.41701058 -0.0060602734 -0.2628004 -0.34079424 0.55556417 -0.10994379 -0.12853293 0.5839272 -0.10355886 0.70428956 0.14504628 0.12229064 0.011748091 -0.29673424 -0.040211093 0.5701802 0.09603729 -0.061257485 0.100510545 -0.032994375 0.35590008 0.30823007 0.09938286 -0.62227035 0.57539535 -0.021884134 -0.2693549 -0.31573483 -0.10049189 -0.37231547 0.10561406 0.48877582 -0.10268772 0.36803424 -0.13517554 -0.07723635 0.023993012 -0.43497542 0.09211272 0.012924515 0.20606405 -0.6139536 0.18356694 -0.27059147 -0.23706102 0.65923154 0.1561699 -0.06674036 -0.3047697 0.53523153 -0.18126296 0.43403664 0.59750193 -0.15342052 -0.078767255 0.69962883 -0.15766989 0.75677276 0.010672727 0.009565153 0.7086395 0.45273104 -0.2535891 0.124079384 -0.3412869 -0.13693337 -0.057181146 0.1828991 -0.09990049 0.09426118 0.16441876 -0.34355274 -0.6977383 -0.113049194 0.3233244 -0.18716332 -0.42524526 0.24706598 0.3494737 -0.7814241 -0.15922491 -0.071806625 -0.49850202 0.12745531 -0.03249582 -0.26021188 -0.27154526 -0.89547765 0.35285544 0.367598 -0.6608202 0.48928037 -0.32407495 -0.21734762 -0.24487416 0.5284157 -0.4616235 0.060499858 0.011948521 0.6361027 0.30646694 0.44582266 0.47009772 0.2585671 0.1397376 0.45261112 0.3274881 -0.27904424 -0.09087718 -0.5236487 0.4569076 -0.029019132 0.08668465 -0.37263167
523 0.24303235 -0.5707732 -1.1867579 0.3093369 0.7078205 -1.0606878 0.03138481 -0.097285345 0.7649007 -1.2579867 0.51963925 0.7007838 2.197754 -1.2558693 -0.22493964 1.0041361 0.13137549 0.8411503 -0.72723657 -0.46000886 -0.12659295 -0.11132501 -1.2420125 0.34028947 0.44224948 -0.61181194 0.0926994 -0.8573442 -0.3370699 1.012049 0.52739435 0.091626085 0.57588893 1.7729743 0.37525296 1.3531811 -0.31376803 -0.07727317 0.66329217 -0.71079636 0.12241497 -0.51225626 0.5915502 0.03222193 -0.49104232 0.17990503 -0.3990952 0.5141186 -0.5297917 -0.087119624 0.576101 -0.05868348 0.059102137 0.047607277 0.19715112 0.41671216 -0.3016262 1.808712 0.017896283 -0.6523286 0.3034295 -0.6161185 0.87564284 0.0788709 -0.3197827 -0.92179215 0.074526235 -1.2228866 -0.2905901 -0.6550643 0.09335201 -0.43193188 0.66853166 0.33314076 -0.40184417 1.4031017 1.4252306 -0.5821528 0.7961522 -0.12440289 -0.8380665 0.3099916 0.9040301 0.15050691 0.14851426 0.875012 -0.4701855 0.22891468 0.017436363 0.63469595 0.29681122 0.6420181 0.1267625 1.3066975 1.2224114 0.34595892 0.41712898 -0.6843331 1.3756317 0.40710777 -0.413361 1.47373 -0.13641194 0.3931454 0.2397039 0.4415337 0.21234 0.0060178405 -0.6493354 -0.79522943 -1.0821272 -0.3834993 -0.46447793 -0.45772567 -0.4703736 0.36959615 0.5150975 -0.4130638 0.08891593 0.1931768 1.1952008 -0.67534554 0.22858201 0.1393816 -0.3677465 -0.41215163 0.7687182 -1.2669733
611 -0.10249239 -0.21204838 0.76988447 0.11442816 0.49697027 0.36500642 0.309365 -0.28202495 -0.44631153 0.8053283 -0.3933827 0.31335354 -0.31187946 0.42266563 0.23350313 -0.08848021 -0.1373208 0.10104279 0.77829546 -0.501461 0.30370608 -0.178392 -0.106450915 -0.024449386 -0.5515585 0.5519295 -0.34219843 0.0441083 0.7445471 0.5554974 -0.55206424 0.15204015 0.14988093 -0.538451 0.11738229 0.20409463 -0.41176972 -0.16552858 0.05140064 -0.14238445 -0.020423358 0.10750468 -0.52786505 0.42242822 0.17951338 -0.3173918 -0.27466372 -0.16478677 -0.16738367 -0.6068496 -0.36162162 -0.26121813 -0.0117877675 -0.009500488 -0.302801 -0.042282827 -0.19343902 -0.038002014 0.22277455 -0.30078307 0.07649687 -0.082318 0.07496654 -0.552319 0.31031618 -0.06758235 0.098690175 0.40527982 0.05418235 0.2603452 0.051629633 -0.27804434 -0.2149329 -0.27758726 0.025910055 -0.1517805 -0.5964337 0.3329246 0.14352255 0.24169932 0.45669615 0.26114583 0.11622546 0.545272 0.041239608 0.31866252 -0.39409477 0.3892349 0.47371534 0.04818399 -0.32627648 0.2199515 -0.35377422 -0.045327827 -0.21178767 -0.0612094 -0.05713175 0.3443506 -0.23621283 -0.4234509 0.46422726 -0.06784226 0.24375787 -0.8320836 0.18250062 -0.35970742 -0.011590586 0.77194893 -0.3413973 0.03034075 0.018476881 -0.113396876 0.86929655 -0.5660132 0.46198812 -0.36622316 -0.041703705 -0.43461838 -0.7810742 -0.20978573 -0.43758577 0.29985955 0.23563102 0.09128255 0.32793275 -0.31776422 -0.44849065 -0.40160543
413 0.08036348 0.007228318 0.47434705 -0.17259377 0.8129507 0.01233493 0.56606346 -0.22545323 -0.38353667 0.40364248 -0.3644446 0.16745791 -0.23362432 0.39264703 -0.098124094 -0.16355342 -0.4964941 0.3790822 0.2899638 -0.06862938 -0.030532187 -0.52247405 -0.06994734 0.09604441 0.20434406 0.31920803 -0.17759688 0.16634215 0.8342006 0.26471272 -0.63394463 -0.40916184 -0.43293977 -0.42584756 0.45002222 0.44804525 -0.2979891 -0.020473782 0.102384955 0.13909408 -0.48018357 -0.25683752 -0.17102566 0.27807167 0.40240037 -0.3373332 -0.3419546 -0.1604271 0.2006668 0.18203509 -0.6220878 -0.37651226 -0.43802536 0.5619545 0.20052461 -0.08795388 -0.61584616 -0.3649926 -0.08054254 -0.23903586 -0.38942918 -0.7215474 0.40630135 0.4802011 -0.10599512 -0.060011808 0.42075112 -0.09034256 0.45053163 0.45388743 0.382197 -0.07796146 -0.37622762 0.031185718 0.071986 -0.23737493 -0.78035426 0.06921245 0.36833435 0.5104782 0.5968555 0.48757344 -0.20806877 0.89489657 -0.22049414 -0.5157938 -0.25563163 0.8039021 -0.31682462 0.14734924 0.046619505 0.106492355 -0.2065791 -0.15733084 -0.20029514 -0.10192823 -0.4983045 0.74129266 0.06550654 -0.40733594 0.55518 -0.047661476 0.034694985 -0.53089076 -0.30588028 -0.27624545 0.34656256 0.3028599 0.31622022 0.036392886 0.23639071 -0.019099751 0.94036293 -0.3310719 -0.17271426 0.1315167 0.12581064 -0.1101904 -0.89491075 0.10327662 -0.28545746 0.02375947 0.04917855 0.4817367 0.5665088 -0.32329625 -0.7195208 -0.30642095
267 -0.13334444 -0.14028755 0.85934854 0.26389292 -0.60085106 -0.2999996 -0.4582843 -0.04306551 -0.015135604 -0.2666724 0.2715889 0.8582937 0.079269074 -0.5548171 0.2629883 0.56632125 0.22783747 -0.6668606 0.29870993 0.26804996 0.66088396 0.09961919 -0.008557494 0.28141555 0.40197724 -0.41944358 -0.18227333 0.039461013 -0.3022666 0.0077749663 0.022165861 -0.005225726 -0.2448685 -0.5697933 0.020692486 -0.50197506 -0.439714 0.12180975 0.04545519 -0.27291915 0.19890043 -0.047895998 0.0736795 0.15945525 0.3686567 -0.046125688 -0.48091534 0.6528393 -0.5125733 0.12831593 -0.13145186 0.048435178 0.49435666 -0.55839056 -0.22755805 -0.05461002 -0.1445661 0.093557954 -0.86121124 0.3237985 0.38604978 0.49836522 -0.4306377 0.010517535 0.25368175 0.78201264 -0.02345599 -0.23758167 -0.16690521 -0.16617121 0.16654935 0.11619874 0.38099912 0.0441393 0.24119577 1.0093969 0.38315582 -0.1854784 -1.0420284 -0.19824414 0.13152583 -0.27286616 -0.10192604 -0.088474005 -0.38022012 0.35577518 0.17613974 0.0078640105 0.24929164 -0.35225558 0.06430622 0.09998678 -0.041294135 -0.10348968 -0.13626106 0.08179243 0.14756387 -0.20190004 -0.15155889 0.05917865 -0.0035537442 -0.3801711 0.3753693 0.44826558 -0.18690102 0.6162058 -0.14788613 0.16242778 0.050191045 0.10314489 0.4027575 -0.47553432 -0.054087147 0.012366361 0.21312578 -0.46322384 -0.12407942 0.19150187 -0.2275349 -0.31140628 0.49518806 0.0060128947 0.271211 -0.41338438 -0.27633992 0.123415306 0.09700109 0.46646327
458 -0.2423872 -0.13838646 0.15299362 -0.28211793 0.8219446 -0.4085241 0.41557252 -0.18143356 -0.24701263 0.09705458 -0.24575727 0.15540859 -0.0027317088 0.15272133 -0.29953092 -0.030669704 -0.6012871 0.3211233 0.06584598 0.17634083 -0.0136033455 -0.39072695 -0.19682755 0.09711241 0.14029758 0.34085956 -0.09531741 -0.29980907 0.5567846 0.35447094 -0.41430485 -0.3365123 -0.41641113 0.034658536 0.42373136 0.5932296 -0.29068205 -0.18004794 -0.17863204 0.19151624 -0.05250751 -0.28691205 0.21730001 0.27713317 0.11087946 -0.41962865 -0.22129335 -0.038121648 0.24309462 0.04369562 -0.62889403 -0.33331412 -0.5368568 0.38855237 0.3558396 -0.09528012 -0.536359 -0.22061227 0.18075572 -0.045841143 -0.24691923 -0.6068798 0.26709777 0.57189757 -0.11511802 -0.24693343 0.34911248 -0.21597484 0.5138438 0.16941859 0.27230558 -0.19533047 -0.053224746 0.035437632 0.010792639 -0.36967242 -0.55472875 -0.026792606 0.3027655 0.47277346 0.39361805 0.40694273 -0.110526055 0.65414643 -0.1781253 -0.34391326 -0.2583387 0.49546146 -0.21225536 0.14210491 -0.29428324 0.06535125 -0.36820942 -0.100568496 -0.053227425 0.027562832 -0.3184726 0.5367361 0.18614127 -0.16936982 0.37737998 0.18598676 0.2661766 -0.43708405 -0.2739208 -0.23877981 0.39454323 0.50961626 0.025410958 -0.0028277154 0.12207661 0.04359063 0.6943153 -0.25039268 -0.32047275 -0.0973774 0.3348866 -0.011409873 -0.5627949 0.09846457 -0.2107268 -0.026294388 -0.013545949 0.32238933 0.4676083 -0.24940847 -0.48204705 -0.14804281
133 -0.1525705 0.15881173 -0.03491465 -0.10037114 0.47402593 -0.27631053 0.33355376 0.1936603 -0.2375372 -0.14058171 -0.08170351 0.017655462 0.0010038409 0.033397205 -0.077634834 0.04103834 -0.4849891 0.25168392 0.18100291 0.088561155 0.037681803 -0.041287817 -0.17078675 0.110134736 0.14869924 0.3448575 -0.17497107 -0.24348849 0.2538755 0.45256656 -0.29637846 -0.38051024 -0.13844353 0.14447847 0.37056386 0.47194704 -0.18169938 -0.44925973 -0.104300775 0.07894274 0.033960678 -0.33071923 0.17653382 0.20815396 -0.11893838 -0.1066011 -0.0061244564 0.13818894 0.16232876 0.009980728 -0.31508684 -0.19740658 -0.26901388 0.08709774 0.23580617 -0.25245604 -0.23808669 -0.056122873 0.026516454 0.25436753 -0.091894835 -0.3352473 0.14581187 0.4086345 0.06372843 -0.09539199 0.4192966 -0.17943874 0.25976154 0.19348574 0.18184549 -0.039560396 0.15107727 0.048753947 0.20202737 0.0726831 -0.2970194 -0.099699154 -0.031349715 0.4452209 0.20140529 0.21331699 -0.2782834 0.3776743 -0.089119405 -0.19002819 -0.3211126 0.24922124 -0.19987714 0.06411986 -0.11531669 0.17181341 -0.16841039 -0.023841966 -0.0335027 0.0048066853 -0.4265532 0.1994231 0.15640841 -0.100707404 0.061727166 -0.015392848 0.091611005 -0.09887201 -0.34054652 0.0815189 0.16483721 0.29242343 -0.07718734 -0.058279652 -0.028588932 -0.10051418 0.15413001 -0.22428504 -0.15603912 -0.095510535 0.32660285 0.24767695 -0.3325256 -0.0024987871 0.14512686 -0.060561232 0.18692328 0.22418974 0.3740246 -0.3032421 -0.23580347 -0.14678144
754 -0.050446685 -0.11374147 0.6564033 0.1914815 -0.4696177 -0.034007505 -0.32463938 -0.34183356 0.21990204 0.032725133 0.119381756 0.5853031 0.14527181 -0.20129484 0.31206328 0.1846958 0.39352345 -0.47377717 0.1761034 0.0675981 0.35514048 0.0050806813 0.09513568 0.092193216 0.1331286 -0.24943607 0.059028707 0.1947447 -0.25590363 -0.06136216 0.18864131 0.19480231 -0.020680023 -0.4320967 -0.32082427 -0.49706665 -0.29331398 0.30589306 0.39434496 -0.29624945 -0.11006886 0.14921097 -0.2172662 -0.17700042 0.43466842 0.1165428 -0.07098919 0.22069924 -0.479598 -0.065123975 0.20829424 -0.19216211 0.40866813 -0.3822822 -0.23414186 -0.00602996 0.029404577 0.018768962 -0.58696747 -0.13785379 0.051456694 0.28647333 -0.14302108 -0.24605702 -0.012006601 0.39400986 -0.17398208 -0.123981036 -0.025672723 -0.01166871 0.027624233 0.22220074 -0.1695511 -0.11832241 0.063131645 0.44965407 0.22475667 -0.1171132 -0.41986734 -0.27633205 0.042286072 -0.07930674 0.10788367 -0.058761675 -0.06793766 0.32456216 0.14399225 0.16001514 0.23333026 -0.21714406 0.2358079 0.036283217 0.023119992 -0.11387897 0.029125448 0.03879972 0.19903745 -0.08133887 -0.25604188 0.0007283665 -0.021679085 -0.17640358 0.027052643 0.116474144 0.00653753 0.16133812 -0.11355633 -0.021905681 0.14917392 0.08474392 0.1875563 -0.482833 0.33329767 -0.07950079 0.4096932 -0.0061087804 -0.12447887 -0.2974434 -0.16216207 -0.09842009 0.17304164 0.035732005 0.013033057 -0.06287602 -0.009469862 0.119570084 0.10482292 -0.051393278
